<?xml version="1.0" encoding="UTF-8" standalone="yes"?>
<PMML xmlns="http://www.dmg.org/PMML-4_4" xmlns:data="http://jpmml.org/jpmml-model/InlineTable" version="4.4">
	<Header>
		<Application name="JPMML-SkLearn library" version="1.7.6"/>
		<Timestamp>2022-05-23T17:24:00Z</Timestamp>
	</Header>
	<DataDictionary>
		<DataField name="y" optype="categorical" dataType="integer">
			<Value value="0"/>
			<Value value="1"/>
			<Value value="2"/>
		</DataField>
		<DataField name="x1" optype="continuous" dataType="double"/>
		<DataField name="x2" optype="continuous" dataType="double"/>
		<DataField name="x3" optype="continuous" dataType="double"/>
		<DataField name="x4" optype="continuous" dataType="double"/>
		<DataField name="x5" optype="continuous" dataType="double"/>
		<DataField name="x6" optype="continuous" dataType="double"/>
		<DataField name="x7" optype="continuous" dataType="double"/>
		<DataField name="x8" optype="continuous" dataType="double"/>
		<DataField name="x9" optype="continuous" dataType="double"/>
		<DataField name="x10" optype="continuous" dataType="double"/>
		<DataField name="x11" optype="continuous" dataType="double"/>
		<DataField name="x12" optype="continuous" dataType="double"/>
		<DataField name="x13" optype="continuous" dataType="double"/>
		<DataField name="x14" optype="continuous" dataType="double"/>
		<DataField name="x15" optype="continuous" dataType="double"/>
		<DataField name="x16" optype="continuous" dataType="double"/>
		<DataField name="x17" optype="continuous" dataType="double"/>
		<DataField name="x18" optype="continuous" dataType="double"/>
		<DataField name="x19" optype="continuous" dataType="double"/>
		<DataField name="x20" optype="continuous" dataType="double"/>
		<DataField name="x21" optype="continuous" dataType="double"/>
		<DataField name="x22" optype="continuous" dataType="double"/>
		<DataField name="x23" optype="continuous" dataType="double"/>
	</DataDictionary>
	<NeuralNetwork functionName="classification" algorithmName="sklearn.neural_network._multilayer_perceptron.MLPClassifier" activationFunction="rectifier">
		<MiningSchema>
			<MiningField name="y" usageType="target"/>
			<MiningField name="x1" missingValueReplacement="0.23269861196747965" missingValueTreatment="asMean"/>
			<MiningField name="x2" missingValueReplacement="0.13728054381707316" missingValueTreatment="asMean"/>
			<MiningField name="x3" missingValueReplacement="0.15990382756097563" missingValueTreatment="asMean"/>
			<MiningField name="x4" missingValueReplacement="0.2954807109146341" missingValueTreatment="asMean"/>
			<MiningField name="x5" missingValueReplacement="0.43208901289430895" missingValueTreatment="asMean"/>
			<MiningField name="x6" missingValueReplacement="0.4546456758536585" missingValueTreatment="asMean"/>
			<MiningField name="x7" missingValueReplacement="0.5112155737560975" missingValueTreatment="asMean"/>
			<MiningField name="x8" missingValueReplacement="0.5426813605" missingValueTreatment="asMean"/>
			<MiningField name="x9" missingValueReplacement="0.5681647950813008" missingValueTreatment="asMean"/>
			<MiningField name="x10" missingValueReplacement="0.5812260838414635" missingValueTreatment="asMean"/>
			<MiningField name="x11" missingValueReplacement="0.5734653373170733" missingValueTreatment="asMean"/>
			<MiningField name="x12" missingValueReplacement="0.5554363107113822" missingValueTreatment="asMean"/>
			<MiningField name="x13" missingValueReplacement="0.49049134828861785" missingValueTreatment="asMean"/>
			<MiningField name="x14" missingValueReplacement="0.5335805536666667" missingValueTreatment="asMean"/>
			<MiningField name="x15" missingValueReplacement="0.7434303884105691" missingValueTreatment="asMean"/>
			<MiningField name="x16" missingValueReplacement="0.9046196152195122" missingValueTreatment="asMean"/>
			<MiningField name="x17" missingValueReplacement="0.972964734906504" missingValueTreatment="asMean"/>
			<MiningField name="x18" missingValueReplacement="0.9702880802154472" missingValueTreatment="asMean"/>
			<MiningField name="x19" missingValueReplacement="0.9622722399146341" missingValueTreatment="asMean"/>
			<MiningField name="x20" missingValueReplacement="0.8831527649634145" missingValueTreatment="asMean"/>
			<MiningField name="x21" missingValueReplacement="0.680485857195122" missingValueTreatment="asMean"/>
			<MiningField name="x22" missingValueReplacement="0.4594574412154471" missingValueTreatment="asMean"/>
			<MiningField name="x23" missingValueReplacement="0.3723875946626017" missingValueTreatment="asMean"/>
		</MiningSchema>
		<Output>
			<OutputField name="probability(0)" optype="continuous" dataType="double" feature="probability" value="0"/>
			<OutputField name="probability(1)" optype="continuous" dataType="double" feature="probability" value="1"/>
			<OutputField name="probability(2)" optype="continuous" dataType="double" feature="probability" value="2"/>
		</Output>
		<NeuralInputs>
			<NeuralInput id="input/1">
				<DerivedField optype="continuous" dataType="double">
					<FieldRef field="x1"/>
				</DerivedField>
			</NeuralInput>
			<NeuralInput id="input/2">
				<DerivedField optype="continuous" dataType="double">
					<FieldRef field="x2"/>
				</DerivedField>
			</NeuralInput>
			<NeuralInput id="input/3">
				<DerivedField optype="continuous" dataType="double">
					<FieldRef field="x3"/>
				</DerivedField>
			</NeuralInput>
			<NeuralInput id="input/4">
				<DerivedField optype="continuous" dataType="double">
					<FieldRef field="x4"/>
				</DerivedField>
			</NeuralInput>
			<NeuralInput id="input/5">
				<DerivedField optype="continuous" dataType="double">
					<FieldRef field="x5"/>
				</DerivedField>
			</NeuralInput>
			<NeuralInput id="input/6">
				<DerivedField optype="continuous" dataType="double">
					<FieldRef field="x6"/>
				</DerivedField>
			</NeuralInput>
			<NeuralInput id="input/7">
				<DerivedField optype="continuous" dataType="double">
					<FieldRef field="x7"/>
				</DerivedField>
			</NeuralInput>
			<NeuralInput id="input/8">
				<DerivedField optype="continuous" dataType="double">
					<FieldRef field="x8"/>
				</DerivedField>
			</NeuralInput>
			<NeuralInput id="input/9">
				<DerivedField optype="continuous" dataType="double">
					<FieldRef field="x9"/>
				</DerivedField>
			</NeuralInput>
			<NeuralInput id="input/10">
				<DerivedField optype="continuous" dataType="double">
					<FieldRef field="x10"/>
				</DerivedField>
			</NeuralInput>
			<NeuralInput id="input/11">
				<DerivedField optype="continuous" dataType="double">
					<FieldRef field="x11"/>
				</DerivedField>
			</NeuralInput>
			<NeuralInput id="input/12">
				<DerivedField optype="continuous" dataType="double">
					<FieldRef field="x12"/>
				</DerivedField>
			</NeuralInput>
			<NeuralInput id="input/13">
				<DerivedField optype="continuous" dataType="double">
					<FieldRef field="x13"/>
				</DerivedField>
			</NeuralInput>
			<NeuralInput id="input/14">
				<DerivedField optype="continuous" dataType="double">
					<FieldRef field="x14"/>
				</DerivedField>
			</NeuralInput>
			<NeuralInput id="input/15">
				<DerivedField optype="continuous" dataType="double">
					<FieldRef field="x15"/>
				</DerivedField>
			</NeuralInput>
			<NeuralInput id="input/16">
				<DerivedField optype="continuous" dataType="double">
					<FieldRef field="x16"/>
				</DerivedField>
			</NeuralInput>
			<NeuralInput id="input/17">
				<DerivedField optype="continuous" dataType="double">
					<FieldRef field="x17"/>
				</DerivedField>
			</NeuralInput>
			<NeuralInput id="input/18">
				<DerivedField optype="continuous" dataType="double">
					<FieldRef field="x18"/>
				</DerivedField>
			</NeuralInput>
			<NeuralInput id="input/19">
				<DerivedField optype="continuous" dataType="double">
					<FieldRef field="x19"/>
				</DerivedField>
			</NeuralInput>
			<NeuralInput id="input/20">
				<DerivedField optype="continuous" dataType="double">
					<FieldRef field="x20"/>
				</DerivedField>
			</NeuralInput>
			<NeuralInput id="input/21">
				<DerivedField optype="continuous" dataType="double">
					<FieldRef field="x21"/>
				</DerivedField>
			</NeuralInput>
			<NeuralInput id="input/22">
				<DerivedField optype="continuous" dataType="double">
					<FieldRef field="x22"/>
				</DerivedField>
			</NeuralInput>
			<NeuralInput id="input/23">
				<DerivedField optype="continuous" dataType="double">
					<FieldRef field="x23"/>
				</DerivedField>
			</NeuralInput>
		</NeuralInputs>
		<NeuralLayer>
			<Neuron id="1/1" bias="0.14688382284532112">
				<Con from="input/1" weight="0.2887515858820639"/>
				<Con from="input/2" weight="0.08485475039788752"/>
				<Con from="input/3" weight="-0.09287455648395913"/>
				<Con from="input/4" weight="-0.197151369802014"/>
				<Con from="input/5" weight="-0.24917994698600066"/>
				<Con from="input/6" weight="0.11824820884752951"/>
				<Con from="input/7" weight="-0.05430522456692763"/>
				<Con from="input/8" weight="0.26422466392962635"/>
				<Con from="input/9" weight="-0.03094148082272585"/>
				<Con from="input/10" weight="0.28374507700295465"/>
				<Con from="input/11" weight="0.28905365314165454"/>
				<Con from="input/12" weight="0.32126555100377774"/>
				<Con from="input/13" weight="0.09377106998529806"/>
				<Con from="input/14" weight="0.09313209088063286"/>
				<Con from="input/15" weight="0.018883761473005075"/>
				<Con from="input/16" weight="-0.08054724804907687"/>
				<Con from="input/17" weight="-0.030301322867653694"/>
				<Con from="input/18" weight="0.05362831389132709"/>
				<Con from="input/19" weight="0.06037320255134655"/>
				<Con from="input/20" weight="-0.16894763047528535"/>
				<Con from="input/21" weight="-0.17538137074238136"/>
				<Con from="input/22" weight="-0.27649278441872094"/>
				<Con from="input/23" weight="-0.3061057926100334"/>
			</Neuron>
			<Neuron id="1/2" bias="-0.10726684515463086">
				<Con from="input/1" weight="-0.1611715702887311"/>
				<Con from="input/2" weight="-0.1264119208524106"/>
				<Con from="input/3" weight="0.056975116147570636"/>
				<Con from="input/4" weight="0.06603239937341747"/>
				<Con from="input/5" weight="0.03420963786285425"/>
				<Con from="input/6" weight="0.19530392664320256"/>
				<Con from="input/7" weight="0.17425554873105822"/>
				<Con from="input/8" weight="-0.21099020612834368"/>
				<Con from="input/9" weight="-0.21707610800550164"/>
				<Con from="input/10" weight="0.11590623686951766"/>
				<Con from="input/11" weight="-0.23822376388578081"/>
				<Con from="input/12" weight="0.1690570640032987"/>
				<Con from="input/13" weight="0.19623871763355863"/>
				<Con from="input/14" weight="0.05871255907155419"/>
				<Con from="input/15" weight="-0.16547316344297364"/>
				<Con from="input/16" weight="0.1909296488412078"/>
				<Con from="input/17" weight="0.07778760818657361"/>
				<Con from="input/18" weight="0.19768171914169846"/>
				<Con from="input/19" weight="0.20211901618882494"/>
				<Con from="input/20" weight="0.16928727027982587"/>
				<Con from="input/21" weight="-0.07759010459903405"/>
				<Con from="input/22" weight="0.034828313734585045"/>
				<Con from="input/23" weight="-0.09518766849447506"/>
			</Neuron>
			<Neuron id="1/3" bias="-0.11369221523392989">
				<Con from="input/1" weight="0.18784041348126299"/>
				<Con from="input/2" weight="-0.12122129103758092"/>
				<Con from="input/3" weight="0.03666016357183456"/>
				<Con from="input/4" weight="0.1271366435612467"/>
				<Con from="input/5" weight="0.12870448955737954"/>
				<Con from="input/6" weight="-0.2117249075217311"/>
				<Con from="input/7" weight="0.07641422586355756"/>
				<Con from="input/8" weight="0.05804426253273547"/>
				<Con from="input/9" weight="-0.06774560989209939"/>
				<Con from="input/10" weight="-0.13618247109866274"/>
				<Con from="input/11" weight="0.03394002235612758"/>
				<Con from="input/12" weight="-0.17647171219862415"/>
				<Con from="input/13" weight="-0.015846237173561713"/>
				<Con from="input/14" weight="-0.2144665273664948"/>
				<Con from="input/15" weight="0.19431164711483814"/>
				<Con from="input/16" weight="-0.10155300171024545"/>
				<Con from="input/17" weight="-0.06189331604804621"/>
				<Con from="input/18" weight="-0.01340923473786908"/>
				<Con from="input/19" weight="0.0775574593654511"/>
				<Con from="input/20" weight="-0.026738517251830702"/>
				<Con from="input/21" weight="0.06502368314101634"/>
				<Con from="input/22" weight="0.18188678970784322"/>
				<Con from="input/23" weight="-0.16407800875075296"/>
			</Neuron>
			<Neuron id="1/4" bias="-0.1594200693116319">
				<Con from="input/1" weight="0.3770093771564535"/>
				<Con from="input/2" weight="0.19199160746695845"/>
				<Con from="input/3" weight="0.04845537871066491"/>
				<Con from="input/4" weight="-0.3675206524104833"/>
				<Con from="input/5" weight="-0.1562161030982426"/>
				<Con from="input/6" weight="-0.1975657368563313"/>
				<Con from="input/7" weight="-0.09290362645178135"/>
				<Con from="input/8" weight="0.19214008633298435"/>
				<Con from="input/9" weight="0.25718217806514365"/>
				<Con from="input/10" weight="-0.02925552671921633"/>
				<Con from="input/11" weight="0.15348737246931551"/>
				<Con from="input/12" weight="0.1349393740454976"/>
				<Con from="input/13" weight="-0.12718452161024993"/>
				<Con from="input/14" weight="0.2828622134276319"/>
				<Con from="input/15" weight="0.035300064024220444"/>
				<Con from="input/16" weight="-0.22515205255505188"/>
				<Con from="input/17" weight="0.18398792970592998"/>
				<Con from="input/18" weight="-0.05763947878572182"/>
				<Con from="input/19" weight="-0.08543037334038654"/>
				<Con from="input/20" weight="0.16371459908295125"/>
				<Con from="input/21" weight="0.19969907860917901"/>
				<Con from="input/22" weight="0.220667070416574"/>
				<Con from="input/23" weight="0.07720283612116671"/>
			</Neuron>
			<Neuron id="1/5" bias="0.13967350765930756">
				<Con from="input/1" weight="-0.35642826453683946"/>
				<Con from="input/2" weight="-0.2406094680158588"/>
				<Con from="input/3" weight="-0.07702168393015062"/>
				<Con from="input/4" weight="0.02637272801152859"/>
				<Con from="input/5" weight="-0.016782690375024004"/>
				<Con from="input/6" weight="-0.07331605696880457"/>
				<Con from="input/7" weight="0.2454870451728064"/>
				<Con from="input/8" weight="0.16521601731327157"/>
				<Con from="input/9" weight="0.13937387569668133"/>
				<Con from="input/10" weight="-0.2046913606532727"/>
				<Con from="input/11" weight="-0.12634179972695533"/>
				<Con from="input/12" weight="0.15481868382828418"/>
				<Con from="input/13" weight="0.07806855509557743"/>
				<Con from="input/14" weight="0.009030267124701006"/>
				<Con from="input/15" weight="0.14924369278003624"/>
				<Con from="input/16" weight="0.001600368436598287"/>
				<Con from="input/17" weight="0.1998248373944965"/>
				<Con from="input/18" weight="0.14388879040095792"/>
				<Con from="input/19" weight="0.19191301116272486"/>
				<Con from="input/20" weight="-0.16222131641991916"/>
				<Con from="input/21" weight="-0.06101969553966988"/>
				<Con from="input/22" weight="-0.25386319821407716"/>
				<Con from="input/23" weight="-0.13331964985713876"/>
			</Neuron>
			<Neuron id="1/6" bias="0.17343769082181826">
				<Con from="input/1" weight="0.2964051650149015"/>
				<Con from="input/2" weight="0.20420920099537657"/>
				<Con from="input/3" weight="-0.19137839026857817"/>
				<Con from="input/4" weight="-0.016651818383293215"/>
				<Con from="input/5" weight="-0.40159848057575437"/>
				<Con from="input/6" weight="-0.06889458157637471"/>
				<Con from="input/7" weight="0.14219463760700934"/>
				<Con from="input/8" weight="-0.004265668854271252"/>
				<Con from="input/9" weight="0.35361676068004777"/>
				<Con from="input/10" weight="-0.04474406482446901"/>
				<Con from="input/11" weight="0.12870719227266217"/>
				<Con from="input/12" weight="0.03566452512693154"/>
				<Con from="input/13" weight="0.07796393082139516"/>
				<Con from="input/14" weight="0.17554795172020132"/>
				<Con from="input/15" weight="0.02684586192028971"/>
				<Con from="input/16" weight="0.31182878533988906"/>
				<Con from="input/17" weight="-0.01661482523850301"/>
				<Con from="input/18" weight="0.18545293862003998"/>
				<Con from="input/19" weight="-0.1375681282253492"/>
				<Con from="input/20" weight="-0.09009614881110645"/>
				<Con from="input/21" weight="-0.14609683247871483"/>
				<Con from="input/22" weight="-0.24621113864653943"/>
				<Con from="input/23" weight="-0.14977642025545532"/>
			</Neuron>
			<Neuron id="1/7" bias="0.20158759160250803">
				<Con from="input/1" weight="-0.03220234902493828"/>
				<Con from="input/2" weight="-0.006471940127390315"/>
				<Con from="input/3" weight="-0.07838247525552978"/>
				<Con from="input/4" weight="-0.015630936469081064"/>
				<Con from="input/5" weight="0.01745624510151049"/>
				<Con from="input/6" weight="-0.014220656823331042"/>
				<Con from="input/7" weight="-0.09728681359320286"/>
				<Con from="input/8" weight="-0.04689827645214433"/>
				<Con from="input/9" weight="-0.011100562012580847"/>
				<Con from="input/10" weight="-0.09604165121702561"/>
				<Con from="input/11" weight="0.009956783570413867"/>
				<Con from="input/12" weight="-0.0018718574734539403"/>
				<Con from="input/13" weight="-0.02227624135913808"/>
				<Con from="input/14" weight="-0.009107493723149245"/>
				<Con from="input/15" weight="-0.025261028109154753"/>
				<Con from="input/16" weight="-0.01139058846277427"/>
				<Con from="input/17" weight="0.03930054199011761"/>
				<Con from="input/18" weight="-0.08127901696706004"/>
				<Con from="input/19" weight="-7.740985564030985E-4"/>
				<Con from="input/20" weight="-0.06215887041080467"/>
				<Con from="input/21" weight="-0.08392905296049893"/>
				<Con from="input/22" weight="-0.01147241632528653"/>
				<Con from="input/23" weight="0.0660580548011251"/>
			</Neuron>
			<Neuron id="1/8" bias="-0.09928343850884477">
				<Con from="input/1" weight="0.20738027507144235"/>
				<Con from="input/2" weight="0.24152369345634223"/>
				<Con from="input/3" weight="0.10446103843648666"/>
				<Con from="input/4" weight="-0.260822352150678"/>
				<Con from="input/5" weight="-0.21622972445582675"/>
				<Con from="input/6" weight="-0.26403801422351847"/>
				<Con from="input/7" weight="0.14414249257288847"/>
				<Con from="input/8" weight="0.13198836838935232"/>
				<Con from="input/9" weight="0.1310710123454361"/>
				<Con from="input/10" weight="0.18126810095920776"/>
				<Con from="input/11" weight="-0.05023561258317513"/>
				<Con from="input/12" weight="0.11411585032475222"/>
				<Con from="input/13" weight="0.24248032942807837"/>
				<Con from="input/14" weight="0.26488487435337077"/>
				<Con from="input/15" weight="-0.1423794589835407"/>
				<Con from="input/16" weight="0.09963267350447758"/>
				<Con from="input/17" weight="0.07264175331474083"/>
				<Con from="input/18" weight="-0.08871807752392533"/>
				<Con from="input/19" weight="0.02616388431989485"/>
				<Con from="input/20" weight="-0.012877764002400259"/>
				<Con from="input/21" weight="-0.266707714250047"/>
				<Con from="input/22" weight="0.2378643344836465"/>
				<Con from="input/23" weight="0.2923863413983672"/>
			</Neuron>
			<Neuron id="1/9" bias="0.0707955300012362">
				<Con from="input/1" weight="0.030113076710026988"/>
				<Con from="input/2" weight="-0.12810946190065375"/>
				<Con from="input/3" weight="0.054440193420225054"/>
				<Con from="input/4" weight="-0.03830048874622489"/>
				<Con from="input/5" weight="-0.1540144738693558"/>
				<Con from="input/6" weight="0.006658774609901781"/>
				<Con from="input/7" weight="-0.05971516115457035"/>
				<Con from="input/8" weight="0.15359336228487788"/>
				<Con from="input/9" weight="-0.18087937696640033"/>
				<Con from="input/10" weight="-0.004985069175709624"/>
				<Con from="input/11" weight="0.04104897289009949"/>
				<Con from="input/12" weight="0.16514220370945087"/>
				<Con from="input/13" weight="0.09771426611471079"/>
				<Con from="input/14" weight="-0.17574842718347194"/>
				<Con from="input/15" weight="0.14375425036371928"/>
				<Con from="input/16" weight="-0.10597558507403664"/>
				<Con from="input/17" weight="-0.1527206551068754"/>
				<Con from="input/18" weight="-0.2057506567544839"/>
				<Con from="input/19" weight="0.16813419956229136"/>
				<Con from="input/20" weight="-0.011816590650992113"/>
				<Con from="input/21" weight="-0.19621934760179946"/>
				<Con from="input/22" weight="0.04027688331750675"/>
				<Con from="input/23" weight="-0.04471983050241491"/>
			</Neuron>
			<Neuron id="1/10" bias="-0.0320732076901551">
				<Con from="input/1" weight="-0.08129359316147002"/>
				<Con from="input/2" weight="0.019546230569919144"/>
				<Con from="input/3" weight="0.07127354036643722"/>
				<Con from="input/4" weight="-0.1276366293937877"/>
				<Con from="input/5" weight="-0.06742688184258075"/>
				<Con from="input/6" weight="0.013749924111628585"/>
				<Con from="input/7" weight="-0.2170151235580552"/>
				<Con from="input/8" weight="0.15660040434939207"/>
				<Con from="input/9" weight="-0.1960252477619524"/>
				<Con from="input/10" weight="0.1800120793875323"/>
				<Con from="input/11" weight="0.1419338740982011"/>
				<Con from="input/12" weight="0.18259323502121194"/>
				<Con from="input/13" weight="-0.1481766174849282"/>
				<Con from="input/14" weight="-0.023512960890893223"/>
				<Con from="input/15" weight="-0.00661456669787929"/>
				<Con from="input/16" weight="-0.21287195353643285"/>
				<Con from="input/17" weight="0.1459090794096706"/>
				<Con from="input/18" weight="0.15360477407086198"/>
				<Con from="input/19" weight="-0.05777750347952449"/>
				<Con from="input/20" weight="-0.021078653697657386"/>
				<Con from="input/21" weight="0.06179618686326201"/>
				<Con from="input/22" weight="0.0786848233687822"/>
				<Con from="input/23" weight="0.18666592526310552"/>
			</Neuron>
			<Neuron id="1/11" bias="-0.13339929595494088">
				<Con from="input/1" weight="-0.1404390927310274"/>
				<Con from="input/2" weight="8.384550652112266E-4"/>
				<Con from="input/3" weight="0.12478306569029342"/>
				<Con from="input/4" weight="0.2863944052192693"/>
				<Con from="input/5" weight="0.3110164045181206"/>
				<Con from="input/6" weight="0.2186013394207824"/>
				<Con from="input/7" weight="-0.06741674420804968"/>
				<Con from="input/8" weight="0.18614079317410887"/>
				<Con from="input/9" weight="-0.2543586915677627"/>
				<Con from="input/10" weight="-0.09759084251644978"/>
				<Con from="input/11" weight="0.02302794469402178"/>
				<Con from="input/12" weight="0.06526506169408447"/>
				<Con from="input/13" weight="-0.05595813342821218"/>
				<Con from="input/14" weight="-0.012435966238854996"/>
				<Con from="input/15" weight="-0.14593107401065925"/>
				<Con from="input/16" weight="-0.1954371571993239"/>
				<Con from="input/17" weight="0.2457928719142985"/>
				<Con from="input/18" weight="0.19582859458922652"/>
				<Con from="input/19" weight="-0.07792584755641455"/>
				<Con from="input/20" weight="0.24087199882058744"/>
				<Con from="input/21" weight="0.3590433124786473"/>
				<Con from="input/22" weight="0.3832619599095615"/>
				<Con from="input/23" weight="0.15088924904660062"/>
			</Neuron>
			<Neuron id="1/12" bias="-0.06743608664411732">
				<Con from="input/1" weight="-1.1931895858745645E-4"/>
				<Con from="input/2" weight="0.007269953928187945"/>
				<Con from="input/3" weight="0.0025828278951155357"/>
				<Con from="input/4" weight="0.025665920864755953"/>
				<Con from="input/5" weight="-0.012149165844712328"/>
				<Con from="input/6" weight="1.0776802935137627E-11"/>
				<Con from="input/7" weight="-0.015265913590807832"/>
				<Con from="input/8" weight="1.4307666123248376E-4"/>
				<Con from="input/9" weight="6.684304620827385E-10"/>
				<Con from="input/10" weight="-2.550757003836115E-11"/>
				<Con from="input/11" weight="-0.013871749375754944"/>
				<Con from="input/12" weight="-0.005085938713731731"/>
				<Con from="input/13" weight="-1.0920342003764573E-11"/>
				<Con from="input/14" weight="-2.4817584731822925E-4"/>
				<Con from="input/15" weight="0.016063571538132725"/>
				<Con from="input/16" weight="-0.007206220888892231"/>
				<Con from="input/17" weight="-0.01706019442563454"/>
				<Con from="input/18" weight="7.618423070876753E-10"/>
				<Con from="input/19" weight="-0.0022744695019393663"/>
				<Con from="input/20" weight="-0.006215303406457463"/>
				<Con from="input/21" weight="1.5644734292142233E-8"/>
				<Con from="input/22" weight="2.9854284427496055E-4"/>
				<Con from="input/23" weight="-0.017566621470652063"/>
			</Neuron>
			<Neuron id="1/13" bias="0.10267110598753876">
				<Con from="input/1" weight="-0.05187638970478167"/>
				<Con from="input/2" weight="0.23434274578327866"/>
				<Con from="input/3" weight="0.21207604761734067"/>
				<Con from="input/4" weight="0.03842946875162939"/>
				<Con from="input/5" weight="-0.1542664257606214"/>
				<Con from="input/6" weight="-0.025304905311373204"/>
				<Con from="input/7" weight="0.19324922673381784"/>
				<Con from="input/8" weight="0.007730493793553818"/>
				<Con from="input/9" weight="0.14843840666145805"/>
				<Con from="input/10" weight="0.10603446319174839"/>
				<Con from="input/11" weight="0.11680827597118046"/>
				<Con from="input/12" weight="-0.17554124068855753"/>
				<Con from="input/13" weight="-0.2341671093730579"/>
				<Con from="input/14" weight="-0.19183195575141618"/>
				<Con from="input/15" weight="-0.2122957051856073"/>
				<Con from="input/16" weight="-0.047184904094334346"/>
				<Con from="input/17" weight="0.19790558678164705"/>
				<Con from="input/18" weight="-0.14973159812146855"/>
				<Con from="input/19" weight="-0.022619593044610697"/>
				<Con from="input/20" weight="0.15870573045024847"/>
				<Con from="input/21" weight="0.12400433308363253"/>
				<Con from="input/22" weight="-0.0319602052896525"/>
				<Con from="input/23" weight="0.22994176366240676"/>
			</Neuron>
			<Neuron id="1/14" bias="0.1409814833034751">
				<Con from="input/1" weight="-0.017871200650162886"/>
				<Con from="input/2" weight="-0.031362648151799795"/>
				<Con from="input/3" weight="0.18566774641869127"/>
				<Con from="input/4" weight="-0.10886508349027572"/>
				<Con from="input/5" weight="0.09831017147407908"/>
				<Con from="input/6" weight="-0.12332138679855921"/>
				<Con from="input/7" weight="-0.1776985738258865"/>
				<Con from="input/8" weight="-0.06505794827518063"/>
				<Con from="input/9" weight="0.08615774611054683"/>
				<Con from="input/10" weight="-0.13142197604428874"/>
				<Con from="input/11" weight="0.08038750195457317"/>
				<Con from="input/12" weight="-0.0912530316058174"/>
				<Con from="input/13" weight="-0.07236223775344756"/>
				<Con from="input/14" weight="-0.05610051008306202"/>
				<Con from="input/15" weight="0.1364613665031084"/>
				<Con from="input/16" weight="-0.023969044777838885"/>
				<Con from="input/17" weight="-0.15413277139980733"/>
				<Con from="input/18" weight="-0.15058316670395755"/>
				<Con from="input/19" weight="0.2073976120324821"/>
				<Con from="input/20" weight="0.01037005964334402"/>
				<Con from="input/21" weight="0.2171112404025762"/>
				<Con from="input/22" weight="0.2888860385575635"/>
				<Con from="input/23" weight="0.33370931910846685"/>
			</Neuron>
			<Neuron id="1/15" bias="0.1629199980798622">
				<Con from="input/1" weight="-0.015444452068131375"/>
				<Con from="input/2" weight="-0.030675403958467684"/>
				<Con from="input/3" weight="0.3356487174007995"/>
				<Con from="input/4" weight="-0.01603027512798111"/>
				<Con from="input/5" weight="0.21436120523388275"/>
				<Con from="input/6" weight="-0.09286060302524914"/>
				<Con from="input/7" weight="-0.048372808292882624"/>
				<Con from="input/8" weight="0.11876465391604053"/>
				<Con from="input/9" weight="0.001788947162276241"/>
				<Con from="input/10" weight="-0.19276742889751314"/>
				<Con from="input/11" weight="-0.2534228383732143"/>
				<Con from="input/12" weight="0.13259119982626122"/>
				<Con from="input/13" weight="-0.2911080573841243"/>
				<Con from="input/14" weight="0.05908192930806624"/>
				<Con from="input/15" weight="-0.12265882320646504"/>
				<Con from="input/16" weight="0.02446911307603308"/>
				<Con from="input/17" weight="0.16509180395389986"/>
				<Con from="input/18" weight="5.750406210626117E-4"/>
				<Con from="input/19" weight="0.021028907910169838"/>
				<Con from="input/20" weight="-0.012046749381202253"/>
				<Con from="input/21" weight="0.1538076931351614"/>
				<Con from="input/22" weight="0.3361371844816171"/>
				<Con from="input/23" weight="0.38195099971250607"/>
			</Neuron>
			<Neuron id="1/16" bias="-0.07037710366981424">
				<Con from="input/1" weight="-0.06427378095268874"/>
				<Con from="input/2" weight="-0.17964851843265403"/>
				<Con from="input/3" weight="-0.19898950246510577"/>
				<Con from="input/4" weight="0.1655132395472188"/>
				<Con from="input/5" weight="0.0860555126075775"/>
				<Con from="input/6" weight="0.03972994815480331"/>
				<Con from="input/7" weight="-0.025549342657407735"/>
				<Con from="input/8" weight="0.17648290707849468"/>
				<Con from="input/9" weight="0.05331962691054263"/>
				<Con from="input/10" weight="0.19683069833438205"/>
				<Con from="input/11" weight="0.12567457078324304"/>
				<Con from="input/12" weight="-0.1908772430102202"/>
				<Con from="input/13" weight="0.21361784196631944"/>
				<Con from="input/14" weight="0.033417372117214156"/>
				<Con from="input/15" weight="-0.06038849086760692"/>
				<Con from="input/16" weight="0.10991414749124222"/>
				<Con from="input/17" weight="-0.06531139552802412"/>
				<Con from="input/18" weight="0.010045619223449731"/>
				<Con from="input/19" weight="0.05497876681190136"/>
				<Con from="input/20" weight="0.185098152524395"/>
				<Con from="input/21" weight="-0.016275939692272118"/>
				<Con from="input/22" weight="0.036549842783384044"/>
				<Con from="input/23" weight="-0.31839849927123315"/>
			</Neuron>
			<Neuron id="1/17" bias="0.007978014781959366">
				<Con from="input/1" weight="-0.16893951726377385"/>
				<Con from="input/2" weight="0.10562897756572948"/>
				<Con from="input/3" weight="0.19473819733825373"/>
				<Con from="input/4" weight="0.31815660314825067"/>
				<Con from="input/5" weight="0.25516381619592177"/>
				<Con from="input/6" weight="0.2896545436841611"/>
				<Con from="input/7" weight="0.204185038102927"/>
				<Con from="input/8" weight="-0.02694009758760167"/>
				<Con from="input/9" weight="0.1356519978021874"/>
				<Con from="input/10" weight="-0.04488040769897597"/>
				<Con from="input/11" weight="-0.01341166803901162"/>
				<Con from="input/12" weight="-0.21134160538066218"/>
				<Con from="input/13" weight="-0.12210255473389735"/>
				<Con from="input/14" weight="-0.10203781037030227"/>
				<Con from="input/15" weight="0.001408765205027349"/>
				<Con from="input/16" weight="0.014132013484798754"/>
				<Con from="input/17" weight="0.051664583381103295"/>
				<Con from="input/18" weight="-0.05835141995271246"/>
				<Con from="input/19" weight="0.03884191845724602"/>
				<Con from="input/20" weight="0.04838029482320779"/>
				<Con from="input/21" weight="0.24593002660722282"/>
				<Con from="input/22" weight="0.31327116966945595"/>
				<Con from="input/23" weight="0.29270007912184415"/>
			</Neuron>
			<Neuron id="1/18" bias="0.1763944471563392">
				<Con from="input/1" weight="0.28247358105364334"/>
				<Con from="input/2" weight="0.16984053119314912"/>
				<Con from="input/3" weight="0.03988853548522305"/>
				<Con from="input/4" weight="-0.0777546640218172"/>
				<Con from="input/5" weight="0.07209307385332017"/>
				<Con from="input/6" weight="-0.31212618067801745"/>
				<Con from="input/7" weight="-0.1815483472621503"/>
				<Con from="input/8" weight="0.25781814832145167"/>
				<Con from="input/9" weight="0.11335814497127249"/>
				<Con from="input/10" weight="0.09965428054245791"/>
				<Con from="input/11" weight="0.003900309562920353"/>
				<Con from="input/12" weight="0.25469569478253634"/>
				<Con from="input/13" weight="0.260529649169015"/>
				<Con from="input/14" weight="-0.04555639091286571"/>
				<Con from="input/15" weight="0.23112255171248733"/>
				<Con from="input/16" weight="-0.056212561906132365"/>
				<Con from="input/17" weight="-0.09965671331169157"/>
				<Con from="input/18" weight="-0.18217022495734173"/>
				<Con from="input/19" weight="-0.07327667087011744"/>
				<Con from="input/20" weight="-0.21022829147474198"/>
				<Con from="input/21" weight="-0.13371404377909216"/>
				<Con from="input/22" weight="0.30837474663948783"/>
				<Con from="input/23" weight="0.3868779975730676"/>
			</Neuron>
			<Neuron id="1/19" bias="-0.11292498841750692">
				<Con from="input/1" weight="3.899534638855391E-8"/>
				<Con from="input/2" weight="0.026760941453543474"/>
				<Con from="input/3" weight="0.0025796616349075116"/>
				<Con from="input/4" weight="-1.0787613560805264E-11"/>
				<Con from="input/5" weight="2.346948872396911E-11"/>
				<Con from="input/6" weight="8.046897315055291E-5"/>
				<Con from="input/7" weight="-0.005648210136311772"/>
				<Con from="input/8" weight="-6.271354331924188E-4"/>
				<Con from="input/9" weight="1.0175761897827322E-9"/>
				<Con from="input/10" weight="-0.008103469845202603"/>
				<Con from="input/11" weight="0.0036121095662474136"/>
				<Con from="input/12" weight="-3.2912806632200917E-8"/>
				<Con from="input/13" weight="-0.0026337064372202643"/>
				<Con from="input/14" weight="-0.020726620605443724"/>
				<Con from="input/15" weight="0.017149268064186828"/>
				<Con from="input/16" weight="0.025361664236850236"/>
				<Con from="input/17" weight="1.5456451220679404E-8"/>
				<Con from="input/18" weight="-1.1112260409468371E-4"/>
				<Con from="input/19" weight="-0.014317581352284803"/>
				<Con from="input/20" weight="-1.3609871124359882E-4"/>
				<Con from="input/21" weight="-9.78625490201043E-5"/>
				<Con from="input/22" weight="-5.89450962707867E-11"/>
				<Con from="input/23" weight="2.7159257502228427E-8"/>
			</Neuron>
			<Neuron id="1/20" bias="-0.21927140772422912">
				<Con from="input/1" weight="0.16606455881417648"/>
				<Con from="input/2" weight="-0.034397097893555204"/>
				<Con from="input/3" weight="-0.2376496470469372"/>
				<Con from="input/4" weight="-0.032968268769139525"/>
				<Con from="input/5" weight="-0.011609928219494445"/>
				<Con from="input/6" weight="0.004831165955361053"/>
				<Con from="input/7" weight="0.14621070686234083"/>
				<Con from="input/8" weight="-0.07048095232068277"/>
				<Con from="input/9" weight="0.1352155837532832"/>
				<Con from="input/10" weight="0.26588280115006824"/>
				<Con from="input/11" weight="0.3271030991004601"/>
				<Con from="input/12" weight="0.21211465332564547"/>
				<Con from="input/13" weight="0.04337068898012039"/>
				<Con from="input/14" weight="0.06771327848862997"/>
				<Con from="input/15" weight="0.09766928922594986"/>
				<Con from="input/16" weight="0.24287882343020098"/>
				<Con from="input/17" weight="-0.09655271268059215"/>
				<Con from="input/18" weight="0.06290324431245588"/>
				<Con from="input/19" weight="-0.1684122064227819"/>
				<Con from="input/20" weight="-0.11392216175659314"/>
				<Con from="input/21" weight="0.03561636038743455"/>
				<Con from="input/22" weight="-0.13914768446381784"/>
				<Con from="input/23" weight="-0.10816928332903024"/>
			</Neuron>
			<Neuron id="1/21" bias="0.12650145557730288">
				<Con from="input/1" weight="-0.05672161959070407"/>
				<Con from="input/2" weight="-0.16921837315866692"/>
				<Con from="input/3" weight="0.3138904751392904"/>
				<Con from="input/4" weight="0.12693172371399705"/>
				<Con from="input/5" weight="0.01807041122318903"/>
				<Con from="input/6" weight="0.15781437087500236"/>
				<Con from="input/7" weight="-0.1278153932506726"/>
				<Con from="input/8" weight="0.10425336397427293"/>
				<Con from="input/9" weight="0.002485858385221189"/>
				<Con from="input/10" weight="0.013747765348162883"/>
				<Con from="input/11" weight="-0.02005141302592062"/>
				<Con from="input/12" weight="-0.039623341265212976"/>
				<Con from="input/13" weight="-0.1579904717224417"/>
				<Con from="input/14" weight="-0.08311908719051071"/>
				<Con from="input/15" weight="-0.12071420977341772"/>
				<Con from="input/16" weight="-0.04911664172385436"/>
				<Con from="input/17" weight="-0.0024878443051484125"/>
				<Con from="input/18" weight="-0.05697412176046599"/>
				<Con from="input/19" weight="0.20374281984348017"/>
				<Con from="input/20" weight="0.004656803524280301"/>
				<Con from="input/21" weight="0.3194477676887347"/>
				<Con from="input/22" weight="0.2080538072414874"/>
				<Con from="input/23" weight="0.17615085459787433"/>
			</Neuron>
			<Neuron id="1/22" bias="0.10369550092074743">
				<Con from="input/1" weight="-0.3001198653942633"/>
				<Con from="input/2" weight="0.07310942345057408"/>
				<Con from="input/3" weight="-0.06630373629737107"/>
				<Con from="input/4" weight="0.03736828773487298"/>
				<Con from="input/5" weight="0.32453730268888953"/>
				<Con from="input/6" weight="-0.0491071070030017"/>
				<Con from="input/7" weight="0.19015160800945244"/>
				<Con from="input/8" weight="0.16238394988782312"/>
				<Con from="input/9" weight="-0.038329422045940365"/>
				<Con from="input/10" weight="-0.24499998999737196"/>
				<Con from="input/11" weight="-0.14720119358515094"/>
				<Con from="input/12" weight="0.13134237198773768"/>
				<Con from="input/13" weight="0.10948802024968167"/>
				<Con from="input/14" weight="-0.2264081888791066"/>
				<Con from="input/15" weight="0.09151065746349553"/>
				<Con from="input/16" weight="0.21223679843779186"/>
				<Con from="input/17" weight="0.08429014004040583"/>
				<Con from="input/18" weight="-0.08566044320744115"/>
				<Con from="input/19" weight="-0.04307197066810534"/>
				<Con from="input/20" weight="0.21220801642409143"/>
				<Con from="input/21" weight="-0.13847539154446256"/>
				<Con from="input/22" weight="0.028233398766533645"/>
				<Con from="input/23" weight="0.04128676511160039"/>
			</Neuron>
			<Neuron id="1/23" bias="0.19381988591291652">
				<Con from="input/1" weight="0.11430721097622117"/>
				<Con from="input/2" weight="0.04030205898007223"/>
				<Con from="input/3" weight="0.011308641353006977"/>
				<Con from="input/4" weight="-0.05043150342446585"/>
				<Con from="input/5" weight="-0.07083258579539577"/>
				<Con from="input/6" weight="-0.0989924575425033"/>
				<Con from="input/7" weight="0.012918262467674177"/>
				<Con from="input/8" weight="0.014349594070797578"/>
				<Con from="input/9" weight="0.03403450822721028"/>
				<Con from="input/10" weight="0.05424046340788869"/>
				<Con from="input/11" weight="0.028353952357492627"/>
				<Con from="input/12" weight="0.04860693831057233"/>
				<Con from="input/13" weight="0.08177180912766227"/>
				<Con from="input/14" weight="0.05816830305646084"/>
				<Con from="input/15" weight="0.036873158560433925"/>
				<Con from="input/16" weight="-0.025389350416886974"/>
				<Con from="input/17" weight="-0.02178601146318127"/>
				<Con from="input/18" weight="-0.0066103129006051175"/>
				<Con from="input/19" weight="-0.004531515246378202"/>
				<Con from="input/20" weight="3.752586929164132E-4"/>
				<Con from="input/21" weight="-0.040391096261256226"/>
				<Con from="input/22" weight="-0.09525858968505348"/>
				<Con from="input/23" weight="-0.14100362097256175"/>
			</Neuron>
			<Neuron id="1/24" bias="-0.08626205472883475">
				<Con from="input/1" weight="3.681796071521323E-9"/>
				<Con from="input/2" weight="-3.4867949033194824E-9"/>
				<Con from="input/3" weight="-0.019551109019241654"/>
				<Con from="input/4" weight="-0.016319761746875536"/>
				<Con from="input/5" weight="0.0017809234755562225"/>
				<Con from="input/6" weight="-0.009187342616849128"/>
				<Con from="input/7" weight="-0.009778186176223579"/>
				<Con from="input/8" weight="0.006514880432932256"/>
				<Con from="input/9" weight="6.03887147203677E-8"/>
				<Con from="input/10" weight="2.5435567771444532E-8"/>
				<Con from="input/11" weight="-0.0011497015756479927"/>
				<Con from="input/12" weight="-1.0889719132910578E-4"/>
				<Con from="input/13" weight="0.016744185477780615"/>
				<Con from="input/14" weight="1.2312702495949767E-10"/>
				<Con from="input/15" weight="-2.4719596556149563E-4"/>
				<Con from="input/16" weight="-0.01872073006122192"/>
				<Con from="input/17" weight="-0.01374282411060241"/>
				<Con from="input/18" weight="-2.1642700265081453E-8"/>
				<Con from="input/19" weight="0.01994247664901393"/>
				<Con from="input/20" weight="-3.226863397257635E-5"/>
				<Con from="input/21" weight="-9.956147931933816E-4"/>
				<Con from="input/22" weight="-0.005291965704778834"/>
				<Con from="input/23" weight="1.4841273358791074E-5"/>
			</Neuron>
			<Neuron id="1/25" bias="-0.14568370147710338">
				<Con from="input/1" weight="0.27684983411102765"/>
				<Con from="input/2" weight="0.20870562789282565"/>
				<Con from="input/3" weight="0.08030256651292708"/>
				<Con from="input/4" weight="-0.35771100591346316"/>
				<Con from="input/5" weight="-0.19912424885260677"/>
				<Con from="input/6" weight="-0.16525304781931868"/>
				<Con from="input/7" weight="0.12029589892887865"/>
				<Con from="input/8" weight="0.0019617549716612168"/>
				<Con from="input/9" weight="0.27869130591007873"/>
				<Con from="input/10" weight="0.22449688708475743"/>
				<Con from="input/11" weight="0.06518981611118928"/>
				<Con from="input/12" weight="-0.13401601565986324"/>
				<Con from="input/13" weight="0.1558683647131649"/>
				<Con from="input/14" weight="-0.10499645685697075"/>
				<Con from="input/15" weight="0.08417342677072683"/>
				<Con from="input/16" weight="0.002329738463391505"/>
				<Con from="input/17" weight="-0.0327279964219538"/>
				<Con from="input/18" weight="-0.004313470014597485"/>
				<Con from="input/19" weight="0.1363326650700719"/>
				<Con from="input/20" weight="-0.07606275545483245"/>
				<Con from="input/21" weight="0.06463162174865915"/>
				<Con from="input/22" weight="0.35127627289870456"/>
				<Con from="input/23" weight="0.33525969919873494"/>
			</Neuron>
			<Neuron id="1/26" bias="0.06882792384343503">
				<Con from="input/1" weight="-0.14269199903271043"/>
				<Con from="input/2" weight="-0.22241315620365143"/>
				<Con from="input/3" weight="0.12373463232677662"/>
				<Con from="input/4" weight="0.15100660477376135"/>
				<Con from="input/5" weight="0.20658415873723485"/>
				<Con from="input/6" weight="0.1491280279679298"/>
				<Con from="input/7" weight="0.14443736273280372"/>
				<Con from="input/8" weight="0.21803201188446164"/>
				<Con from="input/9" weight="0.10121803108577501"/>
				<Con from="input/10" weight="0.0739018294622299"/>
				<Con from="input/11" weight="-0.09298495256972776"/>
				<Con from="input/12" weight="-0.18546871756548308"/>
				<Con from="input/13" weight="0.047294027675300984"/>
				<Con from="input/14" weight="0.06252113387245897"/>
				<Con from="input/15" weight="-0.06431943029750514"/>
				<Con from="input/16" weight="-0.0754117815875274"/>
				<Con from="input/17" weight="-0.05913406534299846"/>
				<Con from="input/18" weight="0.007902652677349277"/>
				<Con from="input/19" weight="0.26539966679314464"/>
				<Con from="input/20" weight="0.268120330806845"/>
				<Con from="input/21" weight="-0.04209413299990525"/>
				<Con from="input/22" weight="-0.2594076011794381"/>
				<Con from="input/23" weight="-0.3081385376149626"/>
			</Neuron>
			<Neuron id="1/27" bias="-0.08490862850514927">
				<Con from="input/1" weight="0.13858516797182313"/>
				<Con from="input/2" weight="0.25659458538479557"/>
				<Con from="input/3" weight="0.28128716016258754"/>
				<Con from="input/4" weight="0.03909356922532344"/>
				<Con from="input/5" weight="0.16086195315649163"/>
				<Con from="input/6" weight="-0.2667986597465185"/>
				<Con from="input/7" weight="0.09339424199000061"/>
				<Con from="input/8" weight="-0.0736398948956335"/>
				<Con from="input/9" weight="0.253320274103006"/>
				<Con from="input/10" weight="0.1143707688635"/>
				<Con from="input/11" weight="-0.14228174153077336"/>
				<Con from="input/12" weight="0.11548917841045692"/>
				<Con from="input/13" weight="-0.2153715091300894"/>
				<Con from="input/14" weight="0.19630363403318996"/>
				<Con from="input/15" weight="-0.12330030565340377"/>
				<Con from="input/16" weight="0.04022249676752776"/>
				<Con from="input/17" weight="0.025436858089071892"/>
				<Con from="input/18" weight="-0.18856967971080524"/>
				<Con from="input/19" weight="-0.18080038344855076"/>
				<Con from="input/20" weight="0.11008066346866657"/>
				<Con from="input/21" weight="0.27986923628203164"/>
				<Con from="input/22" weight="0.16212174675618435"/>
				<Con from="input/23" weight="0.28964100291939565"/>
			</Neuron>
			<Neuron id="1/28" bias="-0.024641178633884736">
				<Con from="input/1" weight="-0.34071845926385325"/>
				<Con from="input/2" weight="-0.1143981251045786"/>
				<Con from="input/3" weight="-0.15791220778758489"/>
				<Con from="input/4" weight="0.3204816757600919"/>
				<Con from="input/5" weight="-0.03280238028193455"/>
				<Con from="input/6" weight="0.17641145913459247"/>
				<Con from="input/7" weight="0.1148890388172685"/>
				<Con from="input/8" weight="0.09183766984175065"/>
				<Con from="input/9" weight="-0.04162974389382577"/>
				<Con from="input/10" weight="0.011438029778770715"/>
				<Con from="input/11" weight="0.04753514814018669"/>
				<Con from="input/12" weight="-0.047927491866063036"/>
				<Con from="input/13" weight="0.06485591291672589"/>
				<Con from="input/14" weight="0.10697631914782135"/>
				<Con from="input/15" weight="0.09959878703671804"/>
				<Con from="input/16" weight="-0.1424581271250887"/>
				<Con from="input/17" weight="0.04477446343468791"/>
				<Con from="input/18" weight="0.18578879542587073"/>
				<Con from="input/19" weight="0.058546576492884264"/>
				<Con from="input/20" weight="-0.03216076811445163"/>
				<Con from="input/21" weight="0.20682323039673886"/>
				<Con from="input/22" weight="-0.10538098755868248"/>
				<Con from="input/23" weight="-0.2991013242917483"/>
			</Neuron>
			<Neuron id="1/29" bias="0.07054393499731229">
				<Con from="input/1" weight="-0.09362444400263417"/>
				<Con from="input/2" weight="-0.3631637268132755"/>
				<Con from="input/3" weight="0.17324515680842603"/>
				<Con from="input/4" weight="0.17242547436328587"/>
				<Con from="input/5" weight="0.20077681513856574"/>
				<Con from="input/6" weight="0.38481645998318487"/>
				<Con from="input/7" weight="0.13569580912976112"/>
				<Con from="input/8" weight="0.2147776679975762"/>
				<Con from="input/9" weight="-0.15476331437101323"/>
				<Con from="input/10" weight="0.026672432431555405"/>
				<Con from="input/11" weight="-0.1315940345937783"/>
				<Con from="input/12" weight="0.015798433487559296"/>
				<Con from="input/13" weight="-0.10058491192786517"/>
				<Con from="input/14" weight="0.050303944942116194"/>
				<Con from="input/15" weight="-0.1472381675360391"/>
				<Con from="input/16" weight="-0.12123095239389389"/>
				<Con from="input/17" weight="0.16386819455201132"/>
				<Con from="input/18" weight="0.14482348076630108"/>
				<Con from="input/19" weight="0.01034378422186891"/>
				<Con from="input/20" weight="0.11313663155171584"/>
				<Con from="input/21" weight="0.286750823142498"/>
				<Con from="input/22" weight="-0.30457138707697234"/>
				<Con from="input/23" weight="-0.27996225683403386"/>
			</Neuron>
			<Neuron id="1/30" bias="0.24900590297313432">
				<Con from="input/1" weight="-0.39123506466521774"/>
				<Con from="input/2" weight="-0.3404469676047349"/>
				<Con from="input/3" weight="0.1610334128582243"/>
				<Con from="input/4" weight="0.2476972144469609"/>
				<Con from="input/5" weight="0.15321705960487877"/>
				<Con from="input/6" weight="0.029471078607015748"/>
				<Con from="input/7" weight="0.10172445968174966"/>
				<Con from="input/8" weight="-0.12253812644132525"/>
				<Con from="input/9" weight="0.183107001039106"/>
				<Con from="input/10" weight="-0.07862081785558125"/>
				<Con from="input/11" weight="0.1659934221858306"/>
				<Con from="input/12" weight="0.004194647970069691"/>
				<Con from="input/13" weight="0.055458335664139"/>
				<Con from="input/14" weight="-0.04307603457315281"/>
				<Con from="input/15" weight="0.013566383003107736"/>
				<Con from="input/16" weight="-0.0777647603992766"/>
				<Con from="input/17" weight="0.045712509629255854"/>
				<Con from="input/18" weight="0.12238230549237457"/>
				<Con from="input/19" weight="-0.12861649507327808"/>
				<Con from="input/20" weight="0.15474636403487302"/>
				<Con from="input/21" weight="0.05038649473770147"/>
				<Con from="input/22" weight="-0.23519915705805897"/>
				<Con from="input/23" weight="-0.23714085850655175"/>
			</Neuron>
			<Neuron id="1/31" bias="-0.07593610731853861">
				<Con from="input/1" weight="0.16652514311487138"/>
				<Con from="input/2" weight="-0.02698169304173905"/>
				<Con from="input/3" weight="-0.2899008179953972"/>
				<Con from="input/4" weight="-0.16206031834346393"/>
				<Con from="input/5" weight="-0.0998783476829881"/>
				<Con from="input/6" weight="-0.10210009480980606"/>
				<Con from="input/7" weight="-0.08647023411147502"/>
				<Con from="input/8" weight="0.17757886362314207"/>
				<Con from="input/9" weight="0.31970181084585303"/>
				<Con from="input/10" weight="0.34735300347266673"/>
				<Con from="input/11" weight="0.09923855289688396"/>
				<Con from="input/12" weight="0.26297596674702783"/>
				<Con from="input/13" weight="0.3400163424935193"/>
				<Con from="input/14" weight="-0.036461804403484885"/>
				<Con from="input/15" weight="0.026776539828569163"/>
				<Con from="input/16" weight="-0.14510584561924317"/>
				<Con from="input/17" weight="0.1456124456420278"/>
				<Con from="input/18" weight="-0.07152553948961698"/>
				<Con from="input/19" weight="0.07221919363928872"/>
				<Con from="input/20" weight="-0.020766553979862126"/>
				<Con from="input/21" weight="-0.11175276237377804"/>
				<Con from="input/22" weight="-0.2584939862370774"/>
				<Con from="input/23" weight="0.015354903185576476"/>
			</Neuron>
			<Neuron id="1/32" bias="0.16928955060413287">
				<Con from="input/1" weight="-0.16640318597332115"/>
				<Con from="input/2" weight="-0.11183381548593198"/>
				<Con from="input/3" weight="0.1385137268787362"/>
				<Con from="input/4" weight="-0.10297378803711538"/>
				<Con from="input/5" weight="0.03637812583758866"/>
				<Con from="input/6" weight="-0.055168179664337146"/>
				<Con from="input/7" weight="-0.12472074801265054"/>
				<Con from="input/8" weight="-0.15905292658985923"/>
				<Con from="input/9" weight="0.11832782636161922"/>
				<Con from="input/10" weight="0.0033404550135254377"/>
				<Con from="input/11" weight="-0.1074100725075629"/>
				<Con from="input/12" weight="-0.21973214112478565"/>
				<Con from="input/13" weight="0.175241736197042"/>
				<Con from="input/14" weight="-0.14606010815192555"/>
				<Con from="input/15" weight="-0.18179517093464295"/>
				<Con from="input/16" weight="0.1315307528283985"/>
				<Con from="input/17" weight="0.03031498814841538"/>
				<Con from="input/18" weight="-0.03480268444952478"/>
				<Con from="input/19" weight="0.12526595119742331"/>
				<Con from="input/20" weight="-0.09176871779891277"/>
				<Con from="input/21" weight="-0.22752134911265243"/>
				<Con from="input/22" weight="0.17374689961949658"/>
				<Con from="input/23" weight="-0.015646773337440724"/>
			</Neuron>
			<Neuron id="1/33" bias="0.09407144345860873">
				<Con from="input/1" weight="-0.08465462428709787"/>
				<Con from="input/2" weight="0.17382639098233627"/>
				<Con from="input/3" weight="0.21804561855113413"/>
				<Con from="input/4" weight="0.0433848732863549"/>
				<Con from="input/5" weight="-0.1363550096537528"/>
				<Con from="input/6" weight="-0.2332985876399904"/>
				<Con from="input/7" weight="0.03614675765938023"/>
				<Con from="input/8" weight="-0.17998713303434813"/>
				<Con from="input/9" weight="-0.0033694377869975156"/>
				<Con from="input/10" weight="0.2113585062597733"/>
				<Con from="input/11" weight="0.06038258557475214"/>
				<Con from="input/12" weight="0.05545817865429024"/>
				<Con from="input/13" weight="-0.12279952351801528"/>
				<Con from="input/14" weight="-0.05482823136568721"/>
				<Con from="input/15" weight="0.15024139449844243"/>
				<Con from="input/16" weight="0.09520277771217531"/>
				<Con from="input/17" weight="-0.167366741378235"/>
				<Con from="input/18" weight="-0.041453322118821946"/>
				<Con from="input/19" weight="-0.052437485699852515"/>
				<Con from="input/20" weight="0.1728008358363793"/>
				<Con from="input/21" weight="0.12750693524291842"/>
				<Con from="input/22" weight="0.12266318359261862"/>
				<Con from="input/23" weight="0.10905150386247914"/>
			</Neuron>
			<Neuron id="1/34" bias="0.06317848759391555">
				<Con from="input/1" weight="0.02259831644594458"/>
				<Con from="input/2" weight="0.01446416329853425"/>
				<Con from="input/3" weight="0.2573412018100002"/>
				<Con from="input/4" weight="-0.2830022872275653"/>
				<Con from="input/5" weight="0.20222116571087892"/>
				<Con from="input/6" weight="-0.2539590189414985"/>
				<Con from="input/7" weight="0.0374679888343411"/>
				<Con from="input/8" weight="-0.12104776615427949"/>
				<Con from="input/9" weight="0.00912583582979319"/>
				<Con from="input/10" weight="-0.04278843718961103"/>
				<Con from="input/11" weight="-0.22463048577360276"/>
				<Con from="input/12" weight="-0.13445642595035798"/>
				<Con from="input/13" weight="0.06401598427810674"/>
				<Con from="input/14" weight="-0.020708216394456243"/>
				<Con from="input/15" weight="0.03303679679064482"/>
				<Con from="input/16" weight="-0.21167785634586903"/>
				<Con from="input/17" weight="0.14098535316691707"/>
				<Con from="input/18" weight="0.13124534337302127"/>
				<Con from="input/19" weight="0.08587381038214484"/>
				<Con from="input/20" weight="0.26020954846194466"/>
				<Con from="input/21" weight="0.19929025813231818"/>
				<Con from="input/22" weight="0.0685175594290758"/>
				<Con from="input/23" weight="0.12232709605635417"/>
			</Neuron>
			<Neuron id="1/35" bias="-0.04746570867583919">
				<Con from="input/1" weight="-0.1511750584526597"/>
				<Con from="input/2" weight="-0.024805818587464022"/>
				<Con from="input/3" weight="0.05549465084434945"/>
				<Con from="input/4" weight="0.059999146591772134"/>
				<Con from="input/5" weight="0.06340684070742501"/>
				<Con from="input/6" weight="0.12160211917533222"/>
				<Con from="input/7" weight="0.00911695395260914"/>
				<Con from="input/8" weight="0.096162521587624"/>
				<Con from="input/9" weight="0.08748200902326905"/>
				<Con from="input/10" weight="0.02882685043965438"/>
				<Con from="input/11" weight="0.07748562876341972"/>
				<Con from="input/12" weight="0.04606021309284591"/>
				<Con from="input/13" weight="-0.190010770060775"/>
				<Con from="input/14" weight="0.01015388734167623"/>
				<Con from="input/15" weight="0.011275427480553137"/>
				<Con from="input/16" weight="-0.18608611104513859"/>
				<Con from="input/17" weight="-0.1557811115518888"/>
				<Con from="input/18" weight="0.002114093403646573"/>
				<Con from="input/19" weight="0.11121684385040026"/>
				<Con from="input/20" weight="0.08329993645020238"/>
				<Con from="input/21" weight="-0.18330075460113612"/>
				<Con from="input/22" weight="-0.09514940736993949"/>
				<Con from="input/23" weight="-0.125733929479732"/>
			</Neuron>
			<Neuron id="1/36" bias="0.03832214440637012">
				<Con from="input/1" weight="0.059695154273612834"/>
				<Con from="input/2" weight="0.15425252733145728"/>
				<Con from="input/3" weight="-0.07376478685182318"/>
				<Con from="input/4" weight="0.061344105786355206"/>
				<Con from="input/5" weight="-0.18207313800309446"/>
				<Con from="input/6" weight="-0.24450996993633783"/>
				<Con from="input/7" weight="-0.05834706164928651"/>
				<Con from="input/8" weight="-0.05394116368223714"/>
				<Con from="input/9" weight="-0.004026742725818661"/>
				<Con from="input/10" weight="0.23634680752129278"/>
				<Con from="input/11" weight="0.27287530106583574"/>
				<Con from="input/12" weight="-0.0668628555578349"/>
				<Con from="input/13" weight="-0.1209674529255268"/>
				<Con from="input/14" weight="-0.07058690665881295"/>
				<Con from="input/15" weight="0.12868430475603462"/>
				<Con from="input/16" weight="0.15337713618201354"/>
				<Con from="input/17" weight="-0.22955633715006976"/>
				<Con from="input/18" weight="-0.05183560334844488"/>
				<Con from="input/19" weight="-0.0054110322118655135"/>
				<Con from="input/20" weight="0.10904882750456926"/>
				<Con from="input/21" weight="0.01199269811751923"/>
				<Con from="input/22" weight="0.30438644299167344"/>
				<Con from="input/23" weight="0.27912517962044064"/>
			</Neuron>
			<Neuron id="1/37" bias="0.10901458656577563">
				<Con from="input/1" weight="-0.4242656194077474"/>
				<Con from="input/2" weight="-0.21483009583557933"/>
				<Con from="input/3" weight="0.05360036987555469"/>
				<Con from="input/4" weight="0.3227701322141957"/>
				<Con from="input/5" weight="0.2840779289545311"/>
				<Con from="input/6" weight="0.19080684367875808"/>
				<Con from="input/7" weight="-0.0372896359729231"/>
				<Con from="input/8" weight="0.09162252814343486"/>
				<Con from="input/9" weight="-0.11586606873905027"/>
				<Con from="input/10" weight="0.06787548315491412"/>
				<Con from="input/11" weight="-0.06103124257461844"/>
				<Con from="input/12" weight="0.028687628230194277"/>
				<Con from="input/13" weight="0.07375776348742405"/>
				<Con from="input/14" weight="-0.029627750401468957"/>
				<Con from="input/15" weight="-0.12643544626641112"/>
				<Con from="input/16" weight="-0.0638164012277829"/>
				<Con from="input/17" weight="0.11246491150211146"/>
				<Con from="input/18" weight="0.2923827865118719"/>
				<Con from="input/19" weight="-0.10678787988088233"/>
				<Con from="input/20" weight="0.23886879334278815"/>
				<Con from="input/21" weight="7.303134927609597E-4"/>
				<Con from="input/22" weight="-0.22257987522794007"/>
				<Con from="input/23" weight="0.010943375717688048"/>
			</Neuron>
			<Neuron id="1/38" bias="0.08393427174486402">
				<Con from="input/1" weight="0.18238318168327758"/>
				<Con from="input/2" weight="0.18909019296412743"/>
				<Con from="input/3" weight="0.017711104412216443"/>
				<Con from="input/4" weight="-0.07077933596894662"/>
				<Con from="input/5" weight="0.019137886916646925"/>
				<Con from="input/6" weight="-0.06281914719857128"/>
				<Con from="input/7" weight="-0.053209448649443845"/>
				<Con from="input/8" weight="-0.17262988347866445"/>
				<Con from="input/9" weight="0.1619752636085124"/>
				<Con from="input/10" weight="0.23439416147347927"/>
				<Con from="input/11" weight="-0.1966037493804762"/>
				<Con from="input/12" weight="-0.0899355201003196"/>
				<Con from="input/13" weight="-0.07467302600860481"/>
				<Con from="input/14" weight="0.21597330057909414"/>
				<Con from="input/15" weight="0.13136014411101957"/>
				<Con from="input/16" weight="-0.07784124325084346"/>
				<Con from="input/17" weight="-0.11996602777623294"/>
				<Con from="input/18" weight="0.08360505307822093"/>
				<Con from="input/19" weight="-0.18930529981310978"/>
				<Con from="input/20" weight="0.01270254458489823"/>
				<Con from="input/21" weight="0.09444164766985862"/>
				<Con from="input/22" weight="0.32940729387937856"/>
				<Con from="input/23" weight="0.16701902710050603"/>
			</Neuron>
			<Neuron id="1/39" bias="0.09002611298651479">
				<Con from="input/1" weight="-0.07879016887124314"/>
				<Con from="input/2" weight="0.19715358612340514"/>
				<Con from="input/3" weight="0.22796147801178893"/>
				<Con from="input/4" weight="-0.24619565802788895"/>
				<Con from="input/5" weight="0.013346347574529755"/>
				<Con from="input/6" weight="-0.09275017047933412"/>
				<Con from="input/7" weight="0.13217337574200563"/>
				<Con from="input/8" weight="0.15449523311562308"/>
				<Con from="input/9" weight="0.05109685417734885"/>
				<Con from="input/10" weight="-0.1590540377697808"/>
				<Con from="input/11" weight="0.0709982758262867"/>
				<Con from="input/12" weight="0.08013111491992592"/>
				<Con from="input/13" weight="-0.1266980682853879"/>
				<Con from="input/14" weight="0.012612961774997846"/>
				<Con from="input/15" weight="-0.1198616446130139"/>
				<Con from="input/16" weight="0.032612300471928146"/>
				<Con from="input/17" weight="-0.1998169396892638"/>
				<Con from="input/18" weight="0.12430866458653915"/>
				<Con from="input/19" weight="-0.11505705746577391"/>
				<Con from="input/20" weight="0.02456515128646882"/>
				<Con from="input/21" weight="0.15796626890082655"/>
				<Con from="input/22" weight="0.125308491837188"/>
				<Con from="input/23" weight="0.146765478363088"/>
			</Neuron>
			<Neuron id="1/40" bias="0.28079093343851885">
				<Con from="input/1" weight="-0.1410458311207788"/>
				<Con from="input/2" weight="-0.015473005856320141"/>
				<Con from="input/3" weight="-0.1405877465281038"/>
				<Con from="input/4" weight="0.1162654407680903"/>
				<Con from="input/5" weight="0.15273369114761845"/>
				<Con from="input/6" weight="0.03628264281601865"/>
				<Con from="input/7" weight="0.27039493513818263"/>
				<Con from="input/8" weight="-0.032518271727566"/>
				<Con from="input/9" weight="-0.2062923458535392"/>
				<Con from="input/10" weight="0.14609650270392355"/>
				<Con from="input/11" weight="-0.0654622440408433"/>
				<Con from="input/12" weight="0.1467812976637731"/>
				<Con from="input/13" weight="0.14083743091002046"/>
				<Con from="input/14" weight="0.1717664952827355"/>
				<Con from="input/15" weight="0.1783030561906667"/>
				<Con from="input/16" weight="0.25929936324687053"/>
				<Con from="input/17" weight="-0.038702373168102294"/>
				<Con from="input/18" weight="-3.189037060415643E-4"/>
				<Con from="input/19" weight="-0.04757307330201946"/>
				<Con from="input/20" weight="-0.07075500871284074"/>
				<Con from="input/21" weight="-0.15772600153349775"/>
				<Con from="input/22" weight="-0.20683015120881906"/>
				<Con from="input/23" weight="-0.28726745809897686"/>
			</Neuron>
			<Neuron id="1/41" bias="0.03892436261401612">
				<Con from="input/1" weight="-0.21704042026074502"/>
				<Con from="input/2" weight="-0.37289454117989607"/>
				<Con from="input/3" weight="0.2557625749391122"/>
				<Con from="input/4" weight="0.09799658506561441"/>
				<Con from="input/5" weight="0.3782980284882434"/>
				<Con from="input/6" weight="0.4420028400152353"/>
				<Con from="input/7" weight="0.0341349423937051"/>
				<Con from="input/8" weight="-0.020328873765331528"/>
				<Con from="input/9" weight="-0.17895399299580222"/>
				<Con from="input/10" weight="-0.24501091969144642"/>
				<Con from="input/11" weight="-0.19297144643824"/>
				<Con from="input/12" weight="0.05028930397040064"/>
				<Con from="input/13" weight="-0.10135072405970931"/>
				<Con from="input/14" weight="-0.20676260366604565"/>
				<Con from="input/15" weight="0.1973235747152336"/>
				<Con from="input/16" weight="0.03893813610255075"/>
				<Con from="input/17" weight="0.20365748393511277"/>
				<Con from="input/18" weight="0.28621516940593744"/>
				<Con from="input/19" weight="0.22130135705198795"/>
				<Con from="input/20" weight="-0.056393604791647615"/>
				<Con from="input/21" weight="-0.017128888055492626"/>
				<Con from="input/22" weight="0.0593159017879727"/>
				<Con from="input/23" weight="-0.10794277342019794"/>
			</Neuron>
			<Neuron id="1/42" bias="0.20434642609399473">
				<Con from="input/1" weight="-0.29839142001129526"/>
				<Con from="input/2" weight="-0.29325431084385883"/>
				<Con from="input/3" weight="0.0658826299663739"/>
				<Con from="input/4" weight="0.17171956988423026"/>
				<Con from="input/5" weight="0.17860142460388923"/>
				<Con from="input/6" weight="0.15912683771411135"/>
				<Con from="input/7" weight="0.08450593933844718"/>
				<Con from="input/8" weight="0.1805018162531178"/>
				<Con from="input/9" weight="0.1434019452442611"/>
				<Con from="input/10" weight="0.08535712307284019"/>
				<Con from="input/11" weight="-0.24394748541883277"/>
				<Con from="input/12" weight="-0.18197381938327686"/>
				<Con from="input/13" weight="-0.13419714824618084"/>
				<Con from="input/14" weight="0.029984860022021276"/>
				<Con from="input/15" weight="0.0754905309565449"/>
				<Con from="input/16" weight="-0.0877382286882472"/>
				<Con from="input/17" weight="0.20915815654660863"/>
				<Con from="input/18" weight="-0.02347966308894386"/>
				<Con from="input/19" weight="0.0297490241351261"/>
				<Con from="input/20" weight="-0.017360371079797026"/>
				<Con from="input/21" weight="0.016689825726651675"/>
				<Con from="input/22" weight="-0.008808942649633139"/>
				<Con from="input/23" weight="-0.10841192692703147"/>
			</Neuron>
			<Neuron id="1/43" bias="-0.18381825849293665">
				<Con from="input/1" weight="-1.903728273559899E-9"/>
				<Con from="input/2" weight="1.0378364644714108E-11"/>
				<Con from="input/3" weight="2.262791925653049E-10"/>
				<Con from="input/4" weight="0.015924941216144812"/>
				<Con from="input/5" weight="3.966271479341815E-4"/>
				<Con from="input/6" weight="-2.900372827012467E-4"/>
				<Con from="input/7" weight="-8.715226645252626E-4"/>
				<Con from="input/8" weight="-0.002617940231900205"/>
				<Con from="input/9" weight="-0.00521282858188727"/>
				<Con from="input/10" weight="1.0850460275309088E-10"/>
				<Con from="input/11" weight="-0.01554309162101186"/>
				<Con from="input/12" weight="-8.023190322276305E-12"/>
				<Con from="input/13" weight="-0.0062312830261830555"/>
				<Con from="input/14" weight="1.9515121385417357E-6"/>
				<Con from="input/15" weight="1.058946999892586E-11"/>
				<Con from="input/16" weight="0.015597144507779912"/>
				<Con from="input/17" weight="-4.0908869719238433E-8"/>
				<Con from="input/18" weight="0.020315404224249035"/>
				<Con from="input/19" weight="-0.007335421214559549"/>
				<Con from="input/20" weight="-0.008024902850826665"/>
				<Con from="input/21" weight="0.011541979603338085"/>
				<Con from="input/22" weight="2.383587503411482E-9"/>
				<Con from="input/23" weight="-0.01923059245432511"/>
			</Neuron>
			<Neuron id="1/44" bias="-0.08352133096668062">
				<Con from="input/1" weight="0.39947896112408526"/>
				<Con from="input/2" weight="0.12185716852556268"/>
				<Con from="input/3" weight="-0.2001207241818144"/>
				<Con from="input/4" weight="0.06557739185564904"/>
				<Con from="input/5" weight="-0.0053893382883538395"/>
				<Con from="input/6" weight="-0.2141271201832303"/>
				<Con from="input/7" weight="-0.15270658178919072"/>
				<Con from="input/8" weight="0.20487763765048778"/>
				<Con from="input/9" weight="-0.022256784303199568"/>
				<Con from="input/10" weight="-0.1129262494505272"/>
				<Con from="input/11" weight="-0.041900579676245886"/>
				<Con from="input/12" weight="0.16010245564152256"/>
				<Con from="input/13" weight="0.07524229144704733"/>
				<Con from="input/14" weight="0.17554036995238015"/>
				<Con from="input/15" weight="-0.17900587262284307"/>
				<Con from="input/16" weight="0.060094142651628706"/>
				<Con from="input/17" weight="0.1811297996004363"/>
				<Con from="input/18" weight="0.0033573854945140647"/>
				<Con from="input/19" weight="0.1428286962423928"/>
				<Con from="input/20" weight="0.11711335444608553"/>
				<Con from="input/21" weight="-0.2319156585446888"/>
				<Con from="input/22" weight="-0.16390557699908315"/>
				<Con from="input/23" weight="-0.21375462802087125"/>
			</Neuron>
			<Neuron id="1/45" bias="0.17975773509632026">
				<Con from="input/1" weight="-0.0023699956157933947"/>
				<Con from="input/2" weight="-0.05206525652890646"/>
				<Con from="input/3" weight="0.27136088879301945"/>
				<Con from="input/4" weight="0.3288566731984904"/>
				<Con from="input/5" weight="0.08035010898818583"/>
				<Con from="input/6" weight="0.2748690162503946"/>
				<Con from="input/7" weight="0.03328855484698011"/>
				<Con from="input/8" weight="0.0502248028286202"/>
				<Con from="input/9" weight="-0.0018536264963901767"/>
				<Con from="input/10" weight="-0.1879293973808594"/>
				<Con from="input/11" weight="-0.2477663133847621"/>
				<Con from="input/12" weight="-0.1494312190278983"/>
				<Con from="input/13" weight="0.02314886845615945"/>
				<Con from="input/14" weight="-0.24493462051503379"/>
				<Con from="input/15" weight="0.027394378314059258"/>
				<Con from="input/16" weight="-0.07667899686413272"/>
				<Con from="input/17" weight="0.09608479785491426"/>
				<Con from="input/18" weight="0.2672898324362505"/>
				<Con from="input/19" weight="0.28110050123726554"/>
				<Con from="input/20" weight="0.13569842385177497"/>
				<Con from="input/21" weight="-0.10909471408114822"/>
				<Con from="input/22" weight="-0.2471060290058731"/>
				<Con from="input/23" weight="-0.2598485843767977"/>
			</Neuron>
			<Neuron id="1/46" bias="-0.059955101187453314">
				<Con from="input/1" weight="-3.615335833931605E-10"/>
				<Con from="input/2" weight="-1.6928153230699625E-9"/>
				<Con from="input/3" weight="-3.018457235967534E-4"/>
				<Con from="input/4" weight="0.008939105403142541"/>
				<Con from="input/5" weight="9.580377339920365E-11"/>
				<Con from="input/6" weight="-0.023033861595849504"/>
				<Con from="input/7" weight="0.011996857368789164"/>
				<Con from="input/8" weight="-1.126753061139981E-8"/>
				<Con from="input/9" weight="-3.0999836485131506E-7"/>
				<Con from="input/10" weight="-1.251201590086811E-4"/>
				<Con from="input/11" weight="-4.0319746150183095E-8"/>
				<Con from="input/12" weight="0.004556679656040521"/>
				<Con from="input/13" weight="1.1530973102758722E-5"/>
				<Con from="input/14" weight="-0.027277684893591034"/>
				<Con from="input/15" weight="-0.02736786151133269"/>
				<Con from="input/16" weight="-1.7119183513603596E-4"/>
				<Con from="input/17" weight="-0.01732322172412623"/>
				<Con from="input/18" weight="2.3340347128037577E-8"/>
				<Con from="input/19" weight="-0.01707037439419766"/>
				<Con from="input/20" weight="-0.010976171019841276"/>
				<Con from="input/21" weight="-0.018883455366230546"/>
				<Con from="input/22" weight="-0.010377208436576494"/>
				<Con from="input/23" weight="0.004561095109004466"/>
			</Neuron>
			<Neuron id="1/47" bias="0.14153656406055437">
				<Con from="input/1" weight="-0.3242402790396615"/>
				<Con from="input/2" weight="-0.24413898217210225"/>
				<Con from="input/3" weight="0.11856016273771737"/>
				<Con from="input/4" weight="-0.006407726207778898"/>
				<Con from="input/5" weight="0.37258139889924724"/>
				<Con from="input/6" weight="0.28352580132585964"/>
				<Con from="input/7" weight="0.28825299048329706"/>
				<Con from="input/8" weight="-0.05519527243540317"/>
				<Con from="input/9" weight="0.06755093006840225"/>
				<Con from="input/10" weight="-0.09590103032539585"/>
				<Con from="input/11" weight="0.13829428372802874"/>
				<Con from="input/12" weight="-0.05128765060950066"/>
				<Con from="input/13" weight="0.0574601596943375"/>
				<Con from="input/14" weight="-0.21709591735673495"/>
				<Con from="input/15" weight="0.23363013359953272"/>
				<Con from="input/16" weight="-0.031372686327576976"/>
				<Con from="input/17" weight="-0.12533534211141253"/>
				<Con from="input/18" weight="0.1636031477276698"/>
				<Con from="input/19" weight="0.00317820560916306"/>
				<Con from="input/20" weight="-0.10759320275618427"/>
				<Con from="input/21" weight="0.16990276352735822"/>
				<Con from="input/22" weight="-0.17494825456526578"/>
				<Con from="input/23" weight="-0.0847700914180835"/>
			</Neuron>
			<Neuron id="1/48" bias="0.14844464379455802">
				<Con from="input/1" weight="-0.3025472630867413"/>
				<Con from="input/2" weight="0.12490560141510487"/>
				<Con from="input/3" weight="0.15699723565569235"/>
				<Con from="input/4" weight="0.14031374638552113"/>
				<Con from="input/5" weight="0.04265587194639079"/>
				<Con from="input/6" weight="0.22339418133625497"/>
				<Con from="input/7" weight="-0.162044692436928"/>
				<Con from="input/8" weight="-0.18189512601489227"/>
				<Con from="input/9" weight="-0.11566416757535943"/>
				<Con from="input/10" weight="-0.11968406829244889"/>
				<Con from="input/11" weight="0.034194533261293944"/>
				<Con from="input/12" weight="-0.28870544204662735"/>
				<Con from="input/13" weight="0.020726692937115085"/>
				<Con from="input/14" weight="0.07901706018595067"/>
				<Con from="input/15" weight="0.029267975619651252"/>
				<Con from="input/16" weight="0.16790788652713462"/>
				<Con from="input/17" weight="0.04821391174194785"/>
				<Con from="input/18" weight="0.20803574730596952"/>
				<Con from="input/19" weight="0.23560453429843511"/>
				<Con from="input/20" weight="0.26365669304809947"/>
				<Con from="input/21" weight="0.2587444829687523"/>
				<Con from="input/22" weight="-0.0777815144301434"/>
				<Con from="input/23" weight="0.1768666181387652"/>
			</Neuron>
			<Neuron id="1/49" bias="-0.16836155667256725">
				<Con from="input/1" weight="0.001648659803668386"/>
				<Con from="input/2" weight="0.01418908712550413"/>
				<Con from="input/3" weight="1.0975846443102463E-11"/>
				<Con from="input/4" weight="0.0016125506469203642"/>
				<Con from="input/5" weight="3.7358293824313625E-8"/>
				<Con from="input/6" weight="1.245661231529221E-9"/>
				<Con from="input/7" weight="-6.985748603159537E-4"/>
				<Con from="input/8" weight="-5.47434467707255E-4"/>
				<Con from="input/9" weight="-0.009542451645105206"/>
				<Con from="input/10" weight="1.8529442196345642E-10"/>
				<Con from="input/11" weight="0.0017355389238401233"/>
				<Con from="input/12" weight="-0.004223026207703809"/>
				<Con from="input/13" weight="-0.0067194196273911416"/>
				<Con from="input/14" weight="-0.0032286316856956526"/>
				<Con from="input/15" weight="9.317065954409241E-4"/>
				<Con from="input/16" weight="-1.5896285889497715E-4"/>
				<Con from="input/17" weight="-0.007910763707455717"/>
				<Con from="input/18" weight="0.007716889806916687"/>
				<Con from="input/19" weight="-8.196651331708382E-7"/>
				<Con from="input/20" weight="2.1020134128192034E-4"/>
				<Con from="input/21" weight="-9.214471554567183E-5"/>
				<Con from="input/22" weight="-0.0033662123799178038"/>
				<Con from="input/23" weight="0.02021190111785001"/>
			</Neuron>
			<Neuron id="1/50" bias="0.21774747759500135">
				<Con from="input/1" weight="-0.13108771915614897"/>
				<Con from="input/2" weight="-0.06189153001411959"/>
				<Con from="input/3" weight="0.028283169482835054"/>
				<Con from="input/4" weight="0.13767489779387632"/>
				<Con from="input/5" weight="-0.04501552618611544"/>
				<Con from="input/6" weight="0.10456645490855897"/>
				<Con from="input/7" weight="0.03813943349130155"/>
				<Con from="input/8" weight="0.015999809659998244"/>
				<Con from="input/9" weight="5.225969473601061E-4"/>
				<Con from="input/10" weight="-0.018081358797789958"/>
				<Con from="input/11" weight="-0.043718063360089356"/>
				<Con from="input/12" weight="0.009136020799900902"/>
				<Con from="input/13" weight="0.03195406094793669"/>
				<Con from="input/14" weight="-0.006995536466530411"/>
				<Con from="input/15" weight="-0.036807052233769344"/>
				<Con from="input/16" weight="-0.012412576985535015"/>
				<Con from="input/17" weight="0.03156211861611626"/>
				<Con from="input/18" weight="0.02142178819208011"/>
				<Con from="input/19" weight="-0.00918751230479585"/>
				<Con from="input/20" weight="0.0244777699761872"/>
				<Con from="input/21" weight="-0.0302891126047552"/>
				<Con from="input/22" weight="-0.1010197845062814"/>
				<Con from="input/23" weight="-0.12255388619094533"/>
			</Neuron>
			<Neuron id="1/51" bias="0.07768133082848055">
				<Con from="input/1" weight="0.2888562883661595"/>
				<Con from="input/2" weight="0.0214727816981513"/>
				<Con from="input/3" weight="-0.04152855798519326"/>
				<Con from="input/4" weight="0.23310018674305535"/>
				<Con from="input/5" weight="-0.015912541743483128"/>
				<Con from="input/6" weight="-0.1196151470225284"/>
				<Con from="input/7" weight="0.02216974004300318"/>
				<Con from="input/8" weight="0.08478842351230895"/>
				<Con from="input/9" weight="-0.11650335889434031"/>
				<Con from="input/10" weight="0.14480036258089907"/>
				<Con from="input/11" weight="-0.06306772177526143"/>
				<Con from="input/12" weight="0.30669982244533917"/>
				<Con from="input/13" weight="-0.07110268154810284"/>
				<Con from="input/14" weight="0.2128104163166543"/>
				<Con from="input/15" weight="0.2444526802766675"/>
				<Con from="input/16" weight="0.156236112027874"/>
				<Con from="input/17" weight="0.1981512271206541"/>
				<Con from="input/18" weight="0.12704178610534514"/>
				<Con from="input/19" weight="0.17075632509468006"/>
				<Con from="input/20" weight="-0.18403770330931088"/>
				<Con from="input/21" weight="-0.26252911675387036"/>
				<Con from="input/22" weight="-0.2354210555328279"/>
				<Con from="input/23" weight="-0.3412747039703598"/>
			</Neuron>
			<Neuron id="1/52" bias="-0.024859733512731297">
				<Con from="input/1" weight="-2.3376591689831363E-4"/>
				<Con from="input/2" weight="1.1652236052433272E-9"/>
				<Con from="input/3" weight="-0.023536647826005595"/>
				<Con from="input/4" weight="0.006339373729154669"/>
				<Con from="input/5" weight="1.415320096134483E-9"/>
				<Con from="input/6" weight="0.0012121910058248242"/>
				<Con from="input/7" weight="3.330939626767504E-9"/>
				<Con from="input/8" weight="-1.2219944550622385E-5"/>
				<Con from="input/9" weight="0.002784518663247253"/>
				<Con from="input/10" weight="3.726796352292806E-4"/>
				<Con from="input/11" weight="-0.0017752065329843143"/>
				<Con from="input/12" weight="-0.020127002163593095"/>
				<Con from="input/13" weight="4.615611616279256E-8"/>
				<Con from="input/14" weight="-2.9904780311047546E-4"/>
				<Con from="input/15" weight="-0.017918479330469216"/>
				<Con from="input/16" weight="9.193312454077027E-12"/>
				<Con from="input/17" weight="-1.8721641162337296E-13"/>
				<Con from="input/18" weight="2.3577832328401976E-9"/>
				<Con from="input/19" weight="-0.016024455474915995"/>
				<Con from="input/20" weight="1.3221743383038995E-5"/>
				<Con from="input/21" weight="0.024860933853492764"/>
				<Con from="input/22" weight="3.2925817262653804E-10"/>
				<Con from="input/23" weight="-0.007853301890055838"/>
			</Neuron>
			<Neuron id="1/53" bias="0.0474397645153188">
				<Con from="input/1" weight="0.0532512398820858"/>
				<Con from="input/2" weight="-0.03824501751474714"/>
				<Con from="input/3" weight="-0.08495141563111214"/>
				<Con from="input/4" weight="0.26014939758986605"/>
				<Con from="input/5" weight="-9.82082961323378E-4"/>
				<Con from="input/6" weight="0.25097901167524034"/>
				<Con from="input/7" weight="0.053554535186291004"/>
				<Con from="input/8" weight="0.2385337541007037"/>
				<Con from="input/9" weight="-0.024572797431131818"/>
				<Con from="input/10" weight="0.003464701941152768"/>
				<Con from="input/11" weight="-0.049220171880412104"/>
				<Con from="input/12" weight="0.07216702154368478"/>
				<Con from="input/13" weight="0.2166896218100022"/>
				<Con from="input/14" weight="-0.11218596407160816"/>
				<Con from="input/15" weight="-0.003870674552243349"/>
				<Con from="input/16" weight="0.22172260770103858"/>
				<Con from="input/17" weight="-0.010242157002713527"/>
				<Con from="input/18" weight="0.035281434599970726"/>
				<Con from="input/19" weight="-0.004269575759353978"/>
				<Con from="input/20" weight="0.21917240851288566"/>
				<Con from="input/21" weight="-0.11909023175087408"/>
				<Con from="input/22" weight="-0.28024397284544894"/>
				<Con from="input/23" weight="-0.31317028341946146"/>
			</Neuron>
			<Neuron id="1/54" bias="-0.1598871226533177">
				<Con from="input/1" weight="0.02210304805369507"/>
				<Con from="input/2" weight="0.02310597902616661"/>
				<Con from="input/3" weight="0.23968055261879273"/>
				<Con from="input/4" weight="-0.20466522833159534"/>
				<Con from="input/5" weight="-0.0675131052569377"/>
				<Con from="input/6" weight="-0.06987206804532177"/>
				<Con from="input/7" weight="-0.19701397424906714"/>
				<Con from="input/8" weight="0.06949639494256019"/>
				<Con from="input/9" weight="0.03970498788517966"/>
				<Con from="input/10" weight="0.17032113355106998"/>
				<Con from="input/11" weight="0.2216932169346041"/>
				<Con from="input/12" weight="0.08685083309428468"/>
				<Con from="input/13" weight="-0.24045104125328887"/>
				<Con from="input/14" weight="-0.0454417946927953"/>
				<Con from="input/15" weight="-0.01465935869166833"/>
				<Con from="input/16" weight="-0.12609442855482417"/>
				<Con from="input/17" weight="-0.13953430881249118"/>
				<Con from="input/18" weight="0.18912442778655011"/>
				<Con from="input/19" weight="0.08476741840718388"/>
				<Con from="input/20" weight="0.06441486556917973"/>
				<Con from="input/21" weight="0.2170860074337143"/>
				<Con from="input/22" weight="0.025407541470549258"/>
				<Con from="input/23" weight="0.3155707356762797"/>
			</Neuron>
			<Neuron id="1/55" bias="-0.174130418023236">
				<Con from="input/1" weight="0.06414317513861645"/>
				<Con from="input/2" weight="-0.20599821665539053"/>
				<Con from="input/3" weight="0.16378234748555792"/>
				<Con from="input/4" weight="0.00531888000156492"/>
				<Con from="input/5" weight="-0.025242735900486667"/>
				<Con from="input/6" weight="0.012885873417139327"/>
				<Con from="input/7" weight="-0.12426074197558881"/>
				<Con from="input/8" weight="-0.13160317567624782"/>
				<Con from="input/9" weight="0.05836893571337832"/>
				<Con from="input/10" weight="-0.12383296333419115"/>
				<Con from="input/11" weight="0.10776752424092989"/>
				<Con from="input/12" weight="0.12437447619097741"/>
				<Con from="input/13" weight="-0.11317170979613995"/>
				<Con from="input/14" weight="0.15232843243090213"/>
				<Con from="input/15" weight="0.1035009046911428"/>
				<Con from="input/16" weight="-0.06125988645221682"/>
				<Con from="input/17" weight="0.0046988386131065615"/>
				<Con from="input/18" weight="0.009055254347789194"/>
				<Con from="input/19" weight="-0.050024068561247644"/>
				<Con from="input/20" weight="0.16419893304952618"/>
				<Con from="input/21" weight="-0.08533001328249946"/>
				<Con from="input/22" weight="-0.12936374553845437"/>
				<Con from="input/23" weight="-0.1405847809493726"/>
			</Neuron>
			<Neuron id="1/56" bias="-0.2346919876477087">
				<Con from="input/1" weight="-0.12362340463229879"/>
				<Con from="input/2" weight="0.04126410049947573"/>
				<Con from="input/3" weight="0.1563427613189742"/>
				<Con from="input/4" weight="-0.0890262968682036"/>
				<Con from="input/5" weight="-0.05489930397130291"/>
				<Con from="input/6" weight="0.12422004890373158"/>
				<Con from="input/7" weight="0.16980202931701258"/>
				<Con from="input/8" weight="-0.1695138451606675"/>
				<Con from="input/9" weight="0.12159926992132415"/>
				<Con from="input/10" weight="-0.12022992600663349"/>
				<Con from="input/11" weight="-0.19208947379468694"/>
				<Con from="input/12" weight="-0.17796618483832666"/>
				<Con from="input/13" weight="0.10289643926721917"/>
				<Con from="input/14" weight="0.06463431933269302"/>
				<Con from="input/15" weight="0.1601800892752009"/>
				<Con from="input/16" weight="0.09467737029581653"/>
				<Con from="input/17" weight="0.004127971056881538"/>
				<Con from="input/18" weight="0.09922098718629312"/>
				<Con from="input/19" weight="-0.12446134443062616"/>
				<Con from="input/20" weight="0.15609878998642374"/>
				<Con from="input/21" weight="-0.14205873318273723"/>
				<Con from="input/22" weight="0.10919510141648575"/>
				<Con from="input/23" weight="-0.11872379846689457"/>
			</Neuron>
			<Neuron id="1/57" bias="0.14258928606950672">
				<Con from="input/1" weight="0.040552974311435265"/>
				<Con from="input/2" weight="0.1771634845845425"/>
				<Con from="input/3" weight="0.09118368230912029"/>
				<Con from="input/4" weight="-0.17309474193547245"/>
				<Con from="input/5" weight="-0.2408033391244019"/>
				<Con from="input/6" weight="-0.11269505919972744"/>
				<Con from="input/7" weight="0.11537000046628287"/>
				<Con from="input/8" weight="0.05127455630609705"/>
				<Con from="input/9" weight="0.0939698352007644"/>
				<Con from="input/10" weight="0.19595620394084298"/>
				<Con from="input/11" weight="0.2592756773846086"/>
				<Con from="input/12" weight="-0.16209667683976614"/>
				<Con from="input/13" weight="0.11780223330077144"/>
				<Con from="input/14" weight="0.24725550871493976"/>
				<Con from="input/15" weight="-0.1945331911514636"/>
				<Con from="input/16" weight="-0.23123222057159026"/>
				<Con from="input/17" weight="0.1588868329149862"/>
				<Con from="input/18" weight="-0.10625728859156658"/>
				<Con from="input/19" weight="0.042661562519942194"/>
				<Con from="input/20" weight="-0.11781539990959743"/>
				<Con from="input/21" weight="-0.10770150508825388"/>
				<Con from="input/22" weight="0.275265404580732"/>
				<Con from="input/23" weight="0.2998415818424852"/>
			</Neuron>
			<Neuron id="1/58" bias="0.09168352561137255">
				<Con from="input/1" weight="-0.07746761153371445"/>
				<Con from="input/2" weight="0.01813434615047269"/>
				<Con from="input/3" weight="4.127629261411581E-4"/>
				<Con from="input/4" weight="0.01826006688165325"/>
				<Con from="input/5" weight="-0.044989984555704306"/>
				<Con from="input/6" weight="0.11951528520415408"/>
				<Con from="input/7" weight="-0.10317968000311689"/>
				<Con from="input/8" weight="-0.024460558103664768"/>
				<Con from="input/9" weight="0.1004547971026196"/>
				<Con from="input/10" weight="0.1563310572521273"/>
				<Con from="input/11" weight="-0.09209062031189176"/>
				<Con from="input/12" weight="-0.20083664239121343"/>
				<Con from="input/13" weight="0.013151180143271624"/>
				<Con from="input/14" weight="0.15551592996251584"/>
				<Con from="input/15" weight="-0.014317856035005539"/>
				<Con from="input/16" weight="0.10984190944796818"/>
				<Con from="input/17" weight="-0.0707538280443812"/>
				<Con from="input/18" weight="0.19907465048543746"/>
				<Con from="input/19" weight="0.15960919612482774"/>
				<Con from="input/20" weight="0.07320315849341506"/>
				<Con from="input/21" weight="-0.19675992052817268"/>
				<Con from="input/22" weight="-0.2538602767105264"/>
				<Con from="input/23" weight="-0.028597167351490073"/>
			</Neuron>
			<Neuron id="1/59" bias="-0.11345836926449393">
				<Con from="input/1" weight="0.0013392868906088307"/>
				<Con from="input/2" weight="-8.717669676169691E-4"/>
				<Con from="input/3" weight="-0.0015387059118006337"/>
				<Con from="input/4" weight="9.717106994953272E-4"/>
				<Con from="input/5" weight="-0.016950484001463772"/>
				<Con from="input/6" weight="-0.003564261300962376"/>
				<Con from="input/7" weight="5.140421330064604E-12"/>
				<Con from="input/8" weight="1.4943675692164988E-10"/>
				<Con from="input/9" weight="-0.0033559850930997732"/>
				<Con from="input/10" weight="9.302263822255452E-4"/>
				<Con from="input/11" weight="-0.01572152233373823"/>
				<Con from="input/12" weight="-0.024615792011394938"/>
				<Con from="input/13" weight="2.196605569269661E-4"/>
				<Con from="input/14" weight="3.2055691958426306E-8"/>
				<Con from="input/15" weight="-3.837849644983655E-6"/>
				<Con from="input/16" weight="0.010801615984614826"/>
				<Con from="input/17" weight="-0.015940686285380888"/>
				<Con from="input/18" weight="-5.8095303744120184E-11"/>
				<Con from="input/19" weight="0.019261516174876175"/>
				<Con from="input/20" weight="-0.003154257877376125"/>
				<Con from="input/21" weight="-0.018474346231165967"/>
				<Con from="input/22" weight="-2.5310170145709036E-7"/>
				<Con from="input/23" weight="-0.002567821820860025"/>
			</Neuron>
			<Neuron id="1/60" bias="0.029146240796691352">
				<Con from="input/1" weight="-0.13961698134946682"/>
				<Con from="input/2" weight="0.068020175499874"/>
				<Con from="input/3" weight="0.050044815134202426"/>
				<Con from="input/4" weight="0.07675474906471333"/>
				<Con from="input/5" weight="-0.18702678144613624"/>
				<Con from="input/6" weight="0.16884556178760035"/>
				<Con from="input/7" weight="-0.11657926588375694"/>
				<Con from="input/8" weight="0.04328247323342645"/>
				<Con from="input/9" weight="-0.02527639274499869"/>
				<Con from="input/10" weight="0.03003242684266334"/>
				<Con from="input/11" weight="-0.13652786647252282"/>
				<Con from="input/12" weight="0.22063835645336233"/>
				<Con from="input/13" weight="0.2716927010362879"/>
				<Con from="input/14" weight="0.25988792750165113"/>
				<Con from="input/15" weight="0.27001043674047825"/>
				<Con from="input/16" weight="0.27276159343534534"/>
				<Con from="input/17" weight="-0.08974475027478737"/>
				<Con from="input/18" weight="0.05260816033859563"/>
				<Con from="input/19" weight="-0.033193864934365803"/>
				<Con from="input/20" weight="0.015000908760905447"/>
				<Con from="input/21" weight="-0.15596815590238172"/>
				<Con from="input/22" weight="-0.07757455314691712"/>
				<Con from="input/23" weight="-0.13094272225939804"/>
			</Neuron>
			<Neuron id="1/61" bias="0.1530055112031524">
				<Con from="input/1" weight="0.02441029389511481"/>
				<Con from="input/2" weight="-0.08518065594254373"/>
				<Con from="input/3" weight="0.03032146821037285"/>
				<Con from="input/4" weight="0.11925355725662214"/>
				<Con from="input/5" weight="0.21243258326168618"/>
				<Con from="input/6" weight="0.20960312340619017"/>
				<Con from="input/7" weight="0.1986617276110727"/>
				<Con from="input/8" weight="-0.18425722826610327"/>
				<Con from="input/9" weight="-0.08787148162200867"/>
				<Con from="input/10" weight="-0.07016894464128946"/>
				<Con from="input/11" weight="0.17948642165868472"/>
				<Con from="input/12" weight="0.20480011692451644"/>
				<Con from="input/13" weight="0.20996892510783954"/>
				<Con from="input/14" weight="-0.030381687811820282"/>
				<Con from="input/15" weight="-0.18226115054913625"/>
				<Con from="input/16" weight="0.2566973857671301"/>
				<Con from="input/17" weight="-0.05053389781385373"/>
				<Con from="input/18" weight="-0.02903870877559102"/>
				<Con from="input/19" weight="-0.029237388549287077"/>
				<Con from="input/20" weight="-0.08149997056311173"/>
				<Con from="input/21" weight="-0.13772588597903027"/>
				<Con from="input/22" weight="0.04150078922330407"/>
				<Con from="input/23" weight="0.08984954499848134"/>
			</Neuron>
			<Neuron id="1/62" bias="-0.0457599876734737">
				<Con from="input/1" weight="0.24292649365052404"/>
				<Con from="input/2" weight="-1.9588132573927222E-4"/>
				<Con from="input/3" weight="0.0859052547194168"/>
				<Con from="input/4" weight="0.1338703275117025"/>
				<Con from="input/5" weight="0.17442667072074397"/>
				<Con from="input/6" weight="0.0013684140916804192"/>
				<Con from="input/7" weight="0.20222304570534735"/>
				<Con from="input/8" weight="0.013472195522461082"/>
				<Con from="input/9" weight="-0.040998335969601736"/>
				<Con from="input/10" weight="-0.016528417555159963"/>
				<Con from="input/11" weight="0.024598761271844967"/>
				<Con from="input/12" weight="0.15670618425760174"/>
				<Con from="input/13" weight="0.35622544401023176"/>
				<Con from="input/14" weight="0.31676487882842325"/>
				<Con from="input/15" weight="0.2348943833939663"/>
				<Con from="input/16" weight="0.22356819079841495"/>
				<Con from="input/17" weight="-0.0912675549217418"/>
				<Con from="input/18" weight="-0.14682607082567337"/>
				<Con from="input/19" weight="0.1416319463070027"/>
				<Con from="input/20" weight="0.1698304423653704"/>
				<Con from="input/21" weight="-0.3076360842186475"/>
				<Con from="input/22" weight="-0.303766691791847"/>
				<Con from="input/23" weight="-0.13133098921395273"/>
			</Neuron>
			<Neuron id="1/63" bias="0.11052766775837791">
				<Con from="input/1" weight="-0.0697960516162579"/>
				<Con from="input/2" weight="0.30544736148201146"/>
				<Con from="input/3" weight="0.21565634957509125"/>
				<Con from="input/4" weight="-0.17158370679950766"/>
				<Con from="input/5" weight="0.15231217249296503"/>
				<Con from="input/6" weight="0.0682137415535846"/>
				<Con from="input/7" weight="0.16802752015836467"/>
				<Con from="input/8" weight="0.11078197229288539"/>
				<Con from="input/9" weight="-0.07094445861750956"/>
				<Con from="input/10" weight="0.11238518898202837"/>
				<Con from="input/11" weight="0.1243650243657541"/>
				<Con from="input/12" weight="0.13998827467985991"/>
				<Con from="input/13" weight="0.055218870984287884"/>
				<Con from="input/14" weight="0.17490445133978985"/>
				<Con from="input/15" weight="0.129110477801991"/>
				<Con from="input/16" weight="0.13803644964229986"/>
				<Con from="input/17" weight="-0.2355966910741331"/>
				<Con from="input/18" weight="-0.03888201077315173"/>
				<Con from="input/19" weight="-0.10332828624615577"/>
				<Con from="input/20" weight="-0.09952891242347316"/>
				<Con from="input/21" weight="0.004959843999130397"/>
				<Con from="input/22" weight="0.035389440491532406"/>
				<Con from="input/23" weight="0.1946978563277071"/>
			</Neuron>
			<Neuron id="1/64" bias="-0.1262174521579188">
				<Con from="input/1" weight="0.07074500540093788"/>
				<Con from="input/2" weight="0.007427378140983186"/>
				<Con from="input/3" weight="-0.16141948284367244"/>
				<Con from="input/4" weight="-0.02725307196399822"/>
				<Con from="input/5" weight="0.05395685392829732"/>
				<Con from="input/6" weight="0.026191977318073895"/>
				<Con from="input/7" weight="-0.1748959607955102"/>
				<Con from="input/8" weight="0.1491907905915599"/>
				<Con from="input/9" weight="-0.2034810116641245"/>
				<Con from="input/10" weight="0.0625351778832944"/>
				<Con from="input/11" weight="-0.1016776969885943"/>
				<Con from="input/12" weight="0.012062523380027093"/>
				<Con from="input/13" weight="-0.16752088599158807"/>
				<Con from="input/14" weight="0.10934365311779326"/>
				<Con from="input/15" weight="0.05010381454790144"/>
				<Con from="input/16" weight="0.10969819342163532"/>
				<Con from="input/17" weight="-0.18476007145768855"/>
				<Con from="input/18" weight="0.09704266846345717"/>
				<Con from="input/19" weight="-0.1801317604843812"/>
				<Con from="input/20" weight="-0.05626523660957495"/>
				<Con from="input/21" weight="-0.04495114173839796"/>
				<Con from="input/22" weight="0.19797099080798794"/>
				<Con from="input/23" weight="0.12291973794761817"/>
			</Neuron>
			<Neuron id="1/65" bias="-0.13823750669389334">
				<Con from="input/1" weight="0.0018515746153181002"/>
				<Con from="input/2" weight="0.015042150041188865"/>
				<Con from="input/3" weight="6.422978424091645E-4"/>
				<Con from="input/4" weight="-1.5117359955231323E-5"/>
				<Con from="input/5" weight="1.4456781535609431E-4"/>
				<Con from="input/6" weight="-3.3346750362119158E-9"/>
				<Con from="input/7" weight="8.754044405249079E-7"/>
				<Con from="input/8" weight="-3.9309459219193305E-4"/>
				<Con from="input/9" weight="1.243071725311176E-4"/>
				<Con from="input/10" weight="-0.009427255457956045"/>
				<Con from="input/11" weight="0.019758869752751644"/>
				<Con from="input/12" weight="-0.0019996147501411213"/>
				<Con from="input/13" weight="-0.004558893077438551"/>
				<Con from="input/14" weight="-0.0026379490345179606"/>
				<Con from="input/15" weight="6.399278374870541E-5"/>
				<Con from="input/16" weight="-9.414879962142494E-5"/>
				<Con from="input/17" weight="0.0020849681473489243"/>
				<Con from="input/18" weight="-0.012490822849695438"/>
				<Con from="input/19" weight="-0.006712271143779271"/>
				<Con from="input/20" weight="4.9461006966182765E-11"/>
				<Con from="input/21" weight="0.021782815197950573"/>
				<Con from="input/22" weight="-3.530446507832718E-4"/>
				<Con from="input/23" weight="-0.004093488005197861"/>
			</Neuron>
			<Neuron id="1/66" bias="0.007952238303640445">
				<Con from="input/1" weight="-0.21853713567892033"/>
				<Con from="input/2" weight="-0.16667983157541474"/>
				<Con from="input/3" weight="0.1777790805691617"/>
				<Con from="input/4" weight="0.10850908230893831"/>
				<Con from="input/5" weight="0.0725478049336456"/>
				<Con from="input/6" weight="0.044938234409929764"/>
				<Con from="input/7" weight="0.23610712233728043"/>
				<Con from="input/8" weight="0.10128533116463824"/>
				<Con from="input/9" weight="-0.022852528661172773"/>
				<Con from="input/10" weight="0.03518200127645313"/>
				<Con from="input/11" weight="-0.20915464534608855"/>
				<Con from="input/12" weight="0.0741198476371564"/>
				<Con from="input/13" weight="0.10068239688951969"/>
				<Con from="input/14" weight="0.030727004078946556"/>
				<Con from="input/15" weight="0.08039987693220693"/>
				<Con from="input/16" weight="-0.1738250816451884"/>
				<Con from="input/17" weight="0.17453244519530256"/>
				<Con from="input/18" weight="0.027095810796958414"/>
				<Con from="input/19" weight="0.1317957742348454"/>
				<Con from="input/20" weight="0.1354159442212423"/>
				<Con from="input/21" weight="0.035759533456334036"/>
				<Con from="input/22" weight="0.33674227994111977"/>
				<Con from="input/23" weight="0.32937526741710815"/>
			</Neuron>
			<Neuron id="1/67" bias="0.19420206922731495">
				<Con from="input/1" weight="0.22321106417446604"/>
				<Con from="input/2" weight="0.06398589682372637"/>
				<Con from="input/3" weight="0.02884044958176502"/>
				<Con from="input/4" weight="-0.16351160173439466"/>
				<Con from="input/5" weight="0.14403409997634345"/>
				<Con from="input/6" weight="0.1000605741875976"/>
				<Con from="input/7" weight="-0.1557269680614271"/>
				<Con from="input/8" weight="0.017994603025354362"/>
				<Con from="input/9" weight="0.035700003736193656"/>
				<Con from="input/10" weight="0.07720504907698324"/>
				<Con from="input/11" weight="0.05385262375407131"/>
				<Con from="input/12" weight="-0.22781778629721677"/>
				<Con from="input/13" weight="-0.012309415852161018"/>
				<Con from="input/14" weight="0.04313386163520163"/>
				<Con from="input/15" weight="0.04839759723039221"/>
				<Con from="input/16" weight="-0.15328428859221277"/>
				<Con from="input/17" weight="0.046188767806030144"/>
				<Con from="input/18" weight="-0.023321156376312557"/>
				<Con from="input/19" weight="-0.004840045850949413"/>
				<Con from="input/20" weight="0.08622551167748095"/>
				<Con from="input/21" weight="0.23146320277870075"/>
				<Con from="input/22" weight="0.33146229744787675"/>
				<Con from="input/23" weight="0.2552193383269761"/>
			</Neuron>
			<Neuron id="1/68" bias="-0.07611024563763333">
				<Con from="input/1" weight="-0.09318639165597323"/>
				<Con from="input/2" weight="-0.1344661131884449"/>
				<Con from="input/3" weight="0.0409915340606455"/>
				<Con from="input/4" weight="0.3127674591977901"/>
				<Con from="input/5" weight="0.13107957327395292"/>
				<Con from="input/6" weight="0.2848480908376577"/>
				<Con from="input/7" weight="0.2439305371208686"/>
				<Con from="input/8" weight="-0.06813120946234384"/>
				<Con from="input/9" weight="-0.09526349179360419"/>
				<Con from="input/10" weight="0.01796219253890412"/>
				<Con from="input/11" weight="-0.036233235672696366"/>
